{"learner":{"attributes":{"best_iteration":"149","best_ntree_limit":"150","scikit_learn":"{\"use_label_encoder\": null, \"n_estimators\": 150, \"objective\": \"multi:softprob\", \"max_depth\": 6, \"max_leaves\": null, \"max_bin\": null, \"grow_policy\": null, \"learning_rate\": 0.1, \"verbosity\": null, \"booster\": \"gbtree\", \"tree_method\": null, \"gamma\": null, \"min_child_weight\": null, \"max_delta_step\": null, \"subsample\": 0.6, \"sampling_method\": null, \"colsample_bytree\": null, \"colsample_bylevel\": null, \"colsample_bynode\": null, \"reg_alpha\": null, \"reg_lambda\": null, \"scale_pos_weight\": null, \"base_score\": null, \"missing\": NaN, \"num_parallel_tree\": null, \"random_state\": 42, \"n_jobs\": null, \"monotone_constraints\": null, \"interaction_constraints\": null, \"importance_type\": null, \"gpu_id\": null, \"validate_parameters\": null, \"predictor\": null, \"enable_categorical\": false, \"feature_types\": null, \"max_cat_to_onehot\": null, \"max_cat_threshold\": null, \"eval_metric\": null, \"early_stopping_rounds\": null, \"callbacks\": null, \"kwargs\": {\"num_class\": 7, \"device\": \"cpu\"}, \"classes_\": [0, 1, 2, 3, 4, 5, 6], \"n_classes_\": 7, \"_estimator_type\": \"classifier\"}"},"feature_names":["AQP4","GLUL","CNGB3","SAG","ONECUT2","GNAT1","GAD1","PDE6A","RHO","SOX9","SLC6A1","VIM","RLBP1","ALDH1L1","TFAP2A","SNCG","ARR3","GFAP","OPN1SW","PAX6","GNAT2","PDE6B","POU4F2","PDE6C","LHX1","ONECUT1","CNGA3","PROX1","NEFM","CNGA1","TFAP2B","NEFL","RBPMS","POU4F1","GAD2","SLC1A3","NRL"],"feature_types":["float","float","float","float","float","float","float","float","float","float","float","float","float","float","float","float","float","float","float","float","float","float","float","float","float","float","float","float","float","float","float","float","float","float","float","float","float"],"gradient_booster":{"model":{"gbtree_model_param":{"num_parallel_tree":"1","num_trees":"1050","size_leaf_vector":"0"},"tree_info":[0,1,2,3,4,5,6,0,1,2,3,4,5,6,0,1,2,3,4,5,6,0,1,2,3,4,5,6,0,1,2,3,4,5,6,0,1,2,3,4,5,6,0,1,2,3,4,5,6,0,1,2,3,4,5,6,0,1,2,3,4,5,6,0,1,2,3,4,5,6,0,1,2,3,4,5,6,0,1,2,3,4,5,6,0,1,2,3,4,5,6,0,1,2,3,4,5,6,0,1,2,3,4,5,6,0,1,2,3,4,5,6,0,1,2,3,4,5,6,0,1,2,3,4,5,6,0,1,2,3,4,5,6,0,1,2,3,4,5,6,0,1,2,3,4,5,6,0,1,2,3,4,5,6,0,1,2,3,4,5,6,0,1,2,3,4,5,6,0,1,2,3,4,5,6,0,1,2,3,4,5,6,0,1,2,3,4,5,6,0,1,2,3,4,5,6,0,1,2,3,4,5,6,0,1,2,3,4,5,6,0,1,2,3,4,5,6,0,1,2,3,4,5,6,0,1,2,3,4,5,6,0,1,2,3,4,5,6,0,1,2,3,4,5,6,0,1,2,3,4,5,6,0,1,2,3,4,5,6,0,1,2,3,4,5,6,0,1,2,3,4,5,6,0,1,2,3,4,5,6,0,1,2,3,4,5,6,0,1,2,3,4,5,6,0,1,2,3,4,5,6,0,1,2,3,4,5,6,0,1,2,3,4,5,6,0,1,2,3,4,5,6,0,1,2,3,4,5,6,0,1,2,3,4,5,6,0,1,2,3,4,5,6,0,1,2,3,4,5,6,0,1,2,3,4,5,6,0,1,2,3,4,5,6,0,1,2,3,4,5,6,0,1,2,3,4,5,6,0,1,2,3,4,5,6,0,1,2,3,4,5,6,0,1,2,3,4,5,6,0,1,2,3,4,5,6,0,1,2,3,4,5,6,0,1,2,3,4,5,6,0,1,2,3,4,5,6,0,1,2,3,4,5,6,0,1,2,3,4,5,6,0,1,2,3,4,5,6,0,1,2,3,4,5,6,0,1,2,3,4,5,6,0,1,2,3,4,5,6,0,1,2,3,4,5,6,0,1,2,3,4,5,6,0,1,2,3,4,5,6,0,1,2,3,4,5,6,0,1,2,3,4,5,6,0,1,2,3,4,5,6,0,1,2,3,4,5,6,0,1,2,3,4,5,6,0,1,2,3,4,5,6,0,1,2,3,4,5,6,0,1,2,3,4,5,6,0,1,2,3,4,5,6,0,1,2,3,4,5,6,0,1,2,3,4,5,6,0,1,2,3,4,5,6,0,1,2,3,4,5,6,0,1,2,3,4,5,6,0,1,2,3,4,5,6,0,1,2,3,4,5,6,0,1,2,3,4,5,6,0,1,2,3,4,5,6,0,1,2,3,4,5,6,0,1,2,3,4,5,6,0,1,2,3,4,5,6,0,1,2,3,4,5,6,0,1,2,3,4,5,6,0,1,2,3,4,5,6,0,1,2,3,4,5,6,0,1,2,3,4,5,6,0,1,2,3,4,5,6,0,1,2,3,4,5,6,0,1,2,3,4,5,6,0,1,2,3,4,5,6,0,1,2,3,4,5,6,0,1,2,3,4,5,6,0,1,2,3,4,5,6,0,1,2,3,4,5,6,0,1,2,3,4,5,6,0,1,2,3,4,5,6,0,1,2,3,4,5,6,0,1,2,3,4,5,6,0,1,2,3,4,5,6,0,1,2,3,4,5,6,0,1,2,3,4,5,6,0,1,2,3,4,5,6,0,1,2,3,4,5,6,0,1,2,3,4,5,6,0,1,2,3,4,5,6,0,1,2,3,4,5,6,0,1,2,3,4,5,6,0,1,2,3,4,5,6,0,1,2,3,4,5,6,0,1,2,3,4,5,6,0,1,2,3,4,5,6,0,1,2,3,4,5,6,0,1,2,3,4,5,6,0,1,2,3,4,5,6,0,1,2,3,4,5,6,0,1,2,3,4,5,6,0,1,2,3,4,5,6,0,1,2,3,4,5,6,0,1,2,3,4,5,6,0,1,2,3,4,5,6,0,1,2,3,4,5,6,0,1,2,3,4,5,6,0,1,2,3,4,5,6,0,1,2,3,4,5,6,0,1,2,3,4,5,6,0,1,2,3,4,5,6,0,1,2,3,4,5,6,0,1,2,3,4,5,6,0,1,2,3,4,5,6,0,1,2,3,4,5,6,0,1,2,3,4,5,6,0,1,2,3,4,5,6,0,1,2,3,4,5,6,0,1,2,3,4,5,6,0,1,2,3,4,5,6,0,1,2,3,4,5,6,0,1,2,3,4,5,6,0,1,2,3,4,5,6,0,1,2,3,4,5,6,0,1,2,3,4,5,6],"trees":[{"base_weights":[2.6479763E-1,-5.133874E-1,2.879759E0,-5.6459403E-1,2.9256263E0,1.0209662E0,3.395659E0,-5.746516E-1,2.0676923E0,3.0212402E0,5.7798165E-1,2.5454527E-2,2.2012753E0,3.4128292E0,-4.8275873E-2,-5.764295E-1,6.275862E-1,2.4830186E0,1.2844035E-1,3.1189384E0,1.1052631E0,-2.968105E-1,2.1222494E0,2.7096772E0,-2.1829522E-1,3.424858E0,1.4682926E0,-5.7998604E-1,2.6465012E-2,-4.3488264E-1,2.84658E-1,2.554896E0,5.785123E-2,2.918819E0,3.9737988E-1,-3.9364302E-1,4.628099E-1,3.4346392E0,1.3254437E0,1.2844035E-1,1.9793103E0,-5.805835E-1,1.2844035E-1,-2.988764E-1,1.1052631E0,-4.9879634E-1,6.275862E-1,-1.5403424E-1,1.198895E0,3.0332062E0,-3.2110092E-1,-3.6842105E-1,9.655172E-1,-4.953846E-1,-1.0979803E-8,1.2844035E-1,1.9266055E0],"categories":[],"categories_nodes":[],"categories_segments":[],"categories_sizes":[],"default_left":[1,1,1,1,1,1,1,1,1,1,0,1,1,1,0,1,0,0,0,0,0,1,1,1,1,1,1,1,1,1,1,0,0,1,1,1,0,0,1,0,0,0,0,0,0,0,0,0,0,0,0,0,0,0,0,0,0],"id":0,"left_children":[1,3,5,7,9,11,13,15,17,19,-1,21,23,25,-1,27,-1,-1,-1,-1,-1,29,31,33,35,37,39,41,43,45,47,-1,-1,49,51,53,-1,-1,55,-1,-1,-1,-1,-1,-1,-1,-1,-1,-1,-1,-1,-1,-1,-1,-1,-1,-1],"loss_changes":[4.5135693E3,3.0272253E2,4.8432568E2,4.580835E1,3.9204407E0,1.3147331E2,2.3684082E1,3.9522095E0,5.0231705E0,1.0490723E0,0E0,4.23455E1,6.35784E1,4.229004E0,0E0,3.612976E0,0E0,0E0,0E0,0E0,0E0,4.490292E0,7.3073006E0,1.9338745E1,1.3545487E0,3.508789E0,2.6102886E0,7.805786E-1,4.119464E0,3.3244743E0,4.612797E0,0E0,0E0,1.5321686E1,2.3890505E0,3.3429384E-1,0E0,0E0,2.234407E0,0E0,0E0,0E0,0E0,0E0,0E0,0E0,0E0,0E0,0E0,0E0,0E0,0E0,0E0,0E0,0E0,0E0,0E0],"parents":[2147483647,0,0,1,1,2,2,3,3,4,4,5,5,6,6,7,7,8,8,9,9,11,11,12,12,13,13,15,15,21,21,22,22,23,23,24,24,25,25,26,26,27,27,28,28,29,29,30,30,33,33,34,34,35,35,38,38],"right_children":[2,4,6,8,10,12,14,16,18,20,-1,22,24,26,-1,28,-1,-1,-1,-1,-1,30,32,34,36,38,40,42,44,46,48,-1,-1,50,52,54,-1,-1,56,-1,-1,-1,-1,-1,-1,-1,-1,-1,-1,-1,-1,-1,-1,-1,-1,-1,-1],"split_conditions":[1.1677623E0,2.316717E0,1.022793E0,1.961457E0,1.6276051E0,2.081518E0,1.6928685E0,1.257298E0,1.4933863E0,1.1505282E0,5.7798166E-2,2.0137663E0,1.5674933E0,3.194232E-1,-4.8275874E-3,1.8645644E0,6.275862E-2,2.4830186E-1,1.2844035E-2,3.1189385E-1,1.10526316E-1,6.49724E-1,1.8386066E0,3.1106918E0,1.3181851E0,2.9536266E0,2.10007E0,2.1013823E0,1.2424349E0,2.6580772E0,1.6610234E0,2.5548962E-1,5.785123E-3,1.241154E0,3.1990733E0,1.252969E0,4.628099E-2,3.4346393E-1,1.2649341E0,1.2844035E-2,1.9793104E-1,-5.805835E-2,1.2844035E-2,-2.988764E-2,1.10526316E-1,-4.9879637E-2,6.275862E-2,-1.5403424E-2,1.198895E-1,3.0332062E-1,-3.211009E-2,-3.6842104E-2,9.6551724E-2,-4.953846E-2,-1.0979803E-9,1.2844035E-2,1.9266056E-1],"split_indices":[3,19,22,22,28,3,9,24,28,4,0,2,28,30,0,19,0,0,0,0,0,2,15,15,13,16,3,2,29,19,3,0,0,1,3,32,0,0,19,0,0,0,0,0,0,0,0,0,0,0,0,0,0,0,0,0,0],"split_type":[0,0,0,0,0,0,0,0,0,0,0,0,0,0,0,0,0,0,0,0,0,0,0,0,0,0,0,0,0,0,0,0,0,0,0,0,0,0,0,0,0,0,0,0,0,0,0,0,0,0,0,0,0,0,0,0,0],"sum_hessian":[2.2163267E3,1.7086532E3,5.076735E2,1.6844083E3,2.42449E1,1.1093878E2,3.967347E2,1.6787756E3,5.632653E0,2.302041E1,1.2244899E0,6.07347E1,5.0204086E1,3.9477554E2,1.9591838E0,1.6768164E3,1.9591838E0,4.4081635E0,1.2244899E0,2.1306124E1,1.7142859E0,5.338776E1,7.346939E0,4.1387756E1,8.816327E0,3.9159186E2,3.1836736E0,1.6670205E3,9.795919E0,4.3346943E1,1.0040817E1,5.8775516E0,1.4693879E0,3.7714287E1,3.6734695E0,7.346939E0,1.4693879E0,3.8914288E2,2.4489799E0,1.2244899E0,1.9591838E0,1.665796E3,1.2244899E0,8.081634E0,1.7142859E0,4.1387756E1,1.9591838E0,7.346939E0,2.6938777E0,3.64898E1,1.2244899E0,1.7142859E0,1.9591838E0,5.632653E0,1.7142859E0,1.2244899E0,1.2244899E0],"tree_param":{"num_deleted":"0","num_feature":"37","num_nodes":"57","size_leaf_vector":"0"}},{"base_weights":[3.9001934E-2,-2.8858197E-1,1.8816317E0,3.475093E-2,-5.696418E-1,3.0403154E0,-2.072646E-1,6.372118E-1,-5.177205E-1,-5.776281E-1,9.873044E-3,3.2186768E0,-1.2811981E-1,8.013876E-1,-4.5228478E-1,1.3783222E0,-5.607561E-1,-5.4616964E-1,1.8194945E0,-5.806615E-1,-3.024E-1,-4.3992606E-1,1.1290323E0,3.2892525E0,-2.614108E-1,-5.293006E-1,1.6776859E0,1.6685472E0,-5.25355E-1,-4.7168997E-1,5.7798165E-1,2.026655E0,-4.284861E-1,1.834061E-1,-5.795709E-1,-5.5929923E-1,3.738872E-1,2.6634145E0,-3.4710744E-1,1.0275229E0,-5.3274333E-1,-5.239085E-1,1.2844035E-1,-1.0979803E-8,1.8421052E0,3.3521438E0,3.043478E-1,-4.2541435E-1,1.2844035E-1,8.3582085E-1,2.737024E0,-9.190373E-2,-5.0719845E-1,2.515059E0,-1.4474441E-1,-4.5545757E-1,5.7798165E-1,1.0275229E0,-4.1420117E-1,-5.615095E-1,1.2844035E-1,-3.032491E-1,1.9266055E0,3.3925552E0,-3.862069E-1,-1.8134716E-1,1.0275229E0,-4.0127388E-1,1.2603878E0,-3.610315E-1,5.350318E-1,-5.1783574E-1,1.2844035E-1],"categories":[],"categories_nodes":[],"categories_segments":[],"categories_sizes":[],"default_left":[1,1,1,1,1,1,1,1,1,1,1,1,1,1,1,1,1,1,1,0,1,1,1,1,1,0,0,1,0,1,0,1,1,1,0,1,1,0,0,0,0,0,0,0,0,1,1,0,0,1,0,1,1,0,0,0,0,0,0,0,0,0,0,0,0,0,0,0,0,0,0,0,0],"id":1,"left_children":[1,3,5,7,9,11,13,15,17,19,21,23,25,27,29,31,33,35,37,-1,39,41,43,45,47,-1,-1,49,-1,51,-1,53,55,57,-1,59,61,-1,-1,-1,-1,-1,-1,-1,-1,63,65,-1,-1,67,-1,69,71,-1,-1,-1,-1,-1,-1,-1,-1,-1,-1,-1,-1,-1,-1,-1,-1,-1,-1,-1,-1],"loss_changes":[1.3182614E3,1.6853899E2,7.985126E2,2.87668E2,4.59729E0,1.2027698E2,2.9661179E1,3.6780765E2,3.0973389E1,6.414795E-1,7.7805347E0,5.0187256E1,9.773657E0,2.794849E1,2.192316E0,3.0039154E2,2.328495E0,5.5994873E0,1.1260767E1,0E0,4.45479E0,5.9430003E-1,3.5653644E0,3.594629E1,3.69106E-1,0E0,0E0,1.05864525E1,0E0,1.2317715E0,0E0,2.001098E2,2.1185875E0,2.7831347E0,0E0,7.414856E-1,7.815312E0,0E0,0E0,0E0,0E0,0E0,0E0,0E0,0E0,3.0430176E1,1.9998968E0,0E0,0E0,5.5329566E0,0E0,1.7667894E0,6.5117073E-1,0E0,0E0,0E0,0E0,0E0,0E0,0E0,0E0,0E0,0E0,0E0,0E0,0E0,0E0,0E0,0E0,0E0,0E0,0E0,0E0],"parents":[2147483647,0,0,1,1,2,2,3,3,4,4,5,5,6,6,7,7,8,8,9,9,10,10,11,11,12,12,13,13,14,14,15,15,16,16,17,17,18,18,20,20,21,21,22,22,23,23,24,24,27,27,29,29,31,31,32,32,33,33,35,35,36,36,45,45,46,46,49,49,51,51,52,52],"right_children":[2,4,6,8,10,12,14,16,18,20,22,24,26,28,30,32,34,36,38,-1,40,42,44,46,48,-1,-1,50,-1,52,-1,54,56,58,-1,60,62,-1,-1,-1,-1,-1,-1,-1,-1,64,66,-1,-1,68,-1,70,72,-1,-1,-1,-1,-1,-1,-1,-1,-1,-1,-1,-1,-1,-1,-1,-1,-1,-1,-1,-1],"split_conditions":[9.9821365E-1,1.889317E0,2.2193302E-1,1.2341511E0,2.614093E-1,2.4757109E0,1.4992366E0,1.6296153E0,5.0404125E-1,9.87247E-1,7.1431875E-1,1.9708999E0,3.6675292E-1,1.2032795E0,1.0775405E0,1.7517652E-1,1.9485376E0,1.4765667E0,2.248967E0,-5.806615E-2,1.0425692E0,1.2836213E-1,9.889655E-1,1.7899914E0,1.8151654E0,-5.2930057E-2,1.6776858E-1,2.000484E0,-5.25355E-2,1.6514817E0,5.7798166E-2,1.8243793E0,7.077167E-1,5.9404576E-1,-5.795709E-2,3.0592117E0,5.291499E-1,2.6634145E-1,-3.4710746E-2,1.0275229E-1,-5.3274333E-2,-5.239085E-2,1.2844035E-2,-1.0979803E-9,1.8421052E-1,1.7969215E0,2.1119223E0,-4.2541437E-2,1.2844035E-2,1.084285E0,2.737024E-1,1.6022198E0,2.8616369E0,2.515059E-1,-1.4474441E-2,-4.5545757E-2,5.7798166E-2,1.0275229E-1,-4.1420117E-2,-5.615095E-2,1.2844035E-2,-3.032491E-2,1.9266056E-1,3.3925554E-1,-3.862069E-2,-1.8134717E-2,1.0275229E-1,-4.012739E-2,1.2603877E-1,-3.610315E-2,5.350318E-2,-5.1783573E-2,1.2844035E-2],"split_indices":[1,16,30,3,12,14,30,9,21,7,0,22,0,8,12,30,9,12,19,0,7,1,12,8,0,0,0,1,0,30,0,19,3,31,0,0,20,0,0,0,0,0,0,0,0,9,1,0,0,30,0,0,1,0,0,0,0,0,0,0,0,0,0,0,0,0,0,0,0,0,0,0,0],"split_type":[0,0,0,0,0,0,0,0,0,0,0,0,0,0,0,0,0,0,0,0,0,0,0,0,0,0,0,0,0,0,0,0,0,0,0,0,0,0,0,0,0,0,0,0,0,0,0,0,0,0,0,0,0,0,0,0,0,0,0,0,0,0,0,0,0,0,0,0,0,0,0,0,0],"sum_hessian":[2.182041E3,1.853388E3,3.2865308E2,8.6228577E2,9.911021E2,2.1110205E2,1.17551025E2,4.124082E2,4.498776E2,9.7763275E2,1.3469389E1,1.9983675E2,1.1265306E1,2.2530613E1,9.502042E1,2.546939E2,1.577143E2,4.4522452E2,4.6530614E0,9.658776E2,1.1755103E1,1.0040817E1,3.4285717E0,1.9591838E2,3.9183676E0,9.795919E0,1.4693879E0,1.3469389E1,9.061225E0,9.379592E1,1.2244899E0,1.8734695E2,6.734695E1,3.6734695E0,1.5404083E2,4.39347E2,5.8775516E0,3.1836736E0,1.4693879E0,1.2244899E0,1.0530613E1,8.816327E0,1.2244899E0,1.7142859E0,1.7142859E0,1.9175511E2,4.1632657E0,2.6938777E0,1.2244899E0,8.571429E0,4.8979597E0,8.326531E0,8.546939E1,1.5281633E2,3.4530613E1,6.612245E1,1.2244899E0,1.2244899E0,2.4489799E0,4.3812247E2,1.2244899E0,4.6530614E0,1.2244899E0,1.8979593E2,1.9591838E0,2.9387758E0,1.2244899E0,2.2040818E0,6.3673472E0,6.1224494E0,2.2040818E0,8.42449E1,1.2244899E0],"tree_param":{"num_deleted":"0","num_feature":"37","num_nodes":"73","size_leaf_vector":"0"}},{"base_weights":[-5.285334E-1,-5.542245E-1,5.5533516E-1,-5.705125E-1,-3.4168744E-1,2.3953755E0,-3.9413488E-1,-5.7244486E-1,-2.611191E-1,-4.8085472E-1,1.0746053E0,3.0430415E0,-2.2580646E-1,5.121951E-1,-5.016139E-1,-5.72943E-1,1.2844035E-1,1.0769229E-1,-5.154394E-1,-1.5185446E-1,-5.6070083E-1,2.16152E0,-4.953846E-1,-4.0127388E-1,1.2844035E-1,-3.4710744E-1,1.1052631E0,-5.31229E-1,1.2844035E-1,-5.734379E-1,-4.8275873E-2,3.9737988E-1,-3.862069E-1,-4.069128E-1,1.4682926E0,-5.693114E-1,1.2844035E-1,7.5121945E-1,2.8528302E0,-5.63331E-1,1.2844035E-1,-5.784533E-1,-5.309587E-1,-1.24260366E-1,1.0275229E0,-5.06442E-1,-2.236423E-2,1.8421052E0,4.628099E-1,-3.255814E-1,-5.7792085E-1,1.3034482E0,-3.2110092E-1],"categories":[],"categories_nodes":[],"categories_segments":[],"categories_sizes":[],"default_left":[1,1,1,1,1,1,1,1,1,1,1,0,1,1,1,1,0,1,0,1,1,1,0,0,0,0,0,1,0,1,0,1,0,1,1,1,0,1,0,0,0,0,0,0,0,0,0,0,0,0,0,0,0],"id":2,"left_children":[1,3,5,7,9,11,13,15,17,19,21,-1,23,25,27,29,-1,31,-1,33,35,37,-1,-1,-1,-1,-1,39,-1,41,-1,43,-1,45,47,49,-1,51,-1,-1,-1,-1,-1,-1,-1,-1,-1,-1,-1,-1,-1,-1,-1],"loss_changes":[6.1580444E1,7.247864E0,9.0828735E1,1.0435181E0,3.1172068E1,3.0655846E1,3.6464458E0,7.6556396E-1,1.3897127E0,3.6531525E0,2.5344103E1,0E0,3.268144E-1,2.515749E0,6.580882E-1,4.868164E-1,0E0,1.1024475E0,0E0,1.2648663E1,7.5043106E-1,6.233547E0,0E0,0E0,0E0,0E0,0E0,7.158661E-1,0E0,1.1450195E-1,0E0,1.6638869E0,0E0,9.830122E-1,7.1993923E-1,4.878235E-2,0E0,2.8959682E0,0E0,0E0,0E0,0E0,0E0,0E0,0E0,0E0,0E0,0E0,0E0,0E0,0E0,0E0,0E0],"parents":[2147483647,0,0,1,1,2,2,3,3,4,4,5,5,6,6,7,7,8,8,9,9,10,10,12,12,13,13,14,14,15,15,17,17,19,19,20,20,21,21,27,27,29,29,31,31,33,33,34,34,35,35,37,37],"right_children":[2,4,6,8,10,12,14,16,18,20,22,-1,24,26,28,30,-1,32,-1,34,36,38,-1,-1,-1,-1,-1,40,-1,42,-1,44,-1,46,48,50,-1,52,-1,-1,-1,-1,-1,-1,-1,-1,-1,-1,-1,-1,-1,-1,-1],"split_conditions":[2.4681919E0,1.0094855E0,1.0254441E0,1.4478965E0,1.362872E0,3.8667125E-1,1.2001309E0,1.8797593E0,6.1950326E-1,1.1204822E0,1.450573E0,3.0430415E-1,1.350573E0,1.8090155E0,1.9735327E0,3.3813188E0,1.2844035E-2,1.641274E0,-5.154394E-2,2.797655E0,1.661747E0,7.388618E-1,-4.953846E-2,-4.012739E-2,1.2844035E-2,-3.4710746E-2,1.10526316E-1,1.7825485E0,1.2844035E-2,2.0724738E0,-4.8275874E-3,7.263212E-1,-3.862069E-2,1.4084501E0,2.0872045E0,1.3964758E0,1.2844035E-2,3.678817E-1,2.8528303E-1,-5.6333102E-2,1.2844035E-2,-5.784533E-2,-5.3095873E-2,-1.2426036E-2,1.0275229E-1,-5.06442E-2,-2.236423E-3,1.8421052E-1,4.628099E-2,-3.255814E-2,-5.7792086E-2,1.3034482E-1,-3.211009E-2],"split_indices":[15,15,22,10,28,0,22,24,0,22,22,0,2,19,28,2,0,6,0,19,17,2,0,0,0,0,0,32,0,19,0,14,0,19,2,3,0,17,0,0,0,0,0,0,0,0,0,0,0,0,0,0,0],"split_type":[0,0,0,0,0,0,0,0,0,0,0,0,0,0,0,0,0,0,0,0,0,0,0,0,0,0,0,0,0,0,0,0,0,0,0,0,0,0,0,0,0,0,0,0,0,0,0,0,0,0,0,0,0],"sum_hessian":[2.1994287E3,2.1489797E3,5.0448982E1,1.9944491E3,1.5453062E2,1.6653063E1,3.379592E1,1.9812246E3,1.3224491E1,1.4130614E2,1.3224491E1,1.3224491E1,3.4285717E0,3.1836736E0,3.0612247E1,1.9800001E3,1.2244899E0,5.632653E0,7.5918374E0,2.8163267E1,1.1314287E2,7.5918374E0,5.632653E0,2.2040818E0,1.2244899E0,1.4693879E0,1.7142859E0,2.9387756E1,1.2244899E0,1.978041E3,1.9591838E0,3.6734695E0,1.9591838E0,2.4979593E1,3.1836736E0,1.1191837E2,1.2244899E0,3.1836736E0,4.4081635E0,2.8163267E1,1.2244899E0,1.7578777E3,2.2016328E2,2.4489799E0,1.2244899E0,1.9591839E1,5.3877554E0,1.7142859E0,1.4693879E0,5.1428576E0,1.0677552E2,1.9591838E0,1.2244899E0],"tree_param":{"num_deleted":"0","num_feature":"37","num_nodes":"53","size_leaf_vector":"0"}},{"base_weights":[-3.140241E-1,-5.275473E-1,3.0925074E0,-5.535966E-1,2.5086703E0,3.225914E0,5.442359E-1,-5.7103324E-1,3.383033E-1,2.79809E0,6.5745854E-1,3.3190172E0,-1.3459113E-8,2.0955412E0,-4.754717E-1,-5.7252365E-1,6.275862E-1,2.8340062E-2,2.298113E0,-3.4710744E-1,1.4770641E0,2.3292034E0,3.3937793E0,5.7798165E-1,-4.0127388E-1,-5.7498896E-1,-4.158417E-2,-3.3229572E-1,9.6551716E-1,8.677686E-1,2.611399E0,1.0790514E0,2.8891966E0,3.4112487E0,1.0275229E0,-5.77959E-1,-2.3906083E-1,3.485477E-1,-3.3546326E-1,-4.7354725E-1,6.5745854E-1,1.8497409E0,3.4097418E-1,1.3419689E0,1.2844035E-1],"categories":[],"categories_nodes":[],"categories_segments":[],"categories_sizes":[],"default_left":[1,1,1,1,1,1,1,1,1,0,1,1,1,0,0,1,0,1,1,0,0,1,1,0,0,1,1,1,1,0,0,1,0,0,0,0,0,0,0,0,0,0,0,0,0],"id":3,"left_children":[1,3,5,7,9,11,13,15,17,-1,19,21,23,-1,-1,25,-1,27,29,-1,-1,31,33,-1,-1,35,37,39,41,-1,-1,43,-1,-1,-1,-1,-1,-1,-1,-1,-1,-1,-1,-1,-1],"loss_changes":[1.5886272E3,1.6384106E2,4.2043213E1,3.1877075E1,7.618477E0,3.670923E1,1.3038013E1,3.9297485E0,2.4047672E1,0E0,3.5540466E0,8.861084E-1,1.2590429E0,0E0,0E0,2.5895386E0,0E0,1.224669E1,1.5734291E-1,0E0,0E0,4.9547157E0,9.703369E-1,0E0,0E0,1.8446655E0,1.2985384E0,3.977635E0,4.925454E0,0E0,0E0,1.118104E0,0E0,0E0,0E0,0E0,0E0,0E0,0E0,0E0,0E0,0E0,0E0,0E0,0E0],"parents":[2147483647,0,0,1,1,2,2,3,3,4,4,5,5,6,6,7,7,8,8,10,10,11,11,12,12,15,15,17,17,18,18,21,21,22,22,25,25,26,26,27,27,28,28,31,31],"right_children":[2,4,6,8,10,12,14,16,18,-1,20,22,24,-1,-1,26,-1,28,30,-1,-1,32,34,-1,-1,36,38,40,42,-1,-1,44,-1,-1,-1,-1,-1,-1,-1,-1,-1,-1,-1,-1,-1],"split_conditions":[1.4357638E0,1.6724615E0,1.7749045E0,9.035835E-1,1.2102513E0,1.6879102E0,2.9458833E-1,7.1609724E-1,1.0646684E0,2.79809E-1,1.8995035E0,1.6360424E0,3.474207E0,2.0955412E-1,-4.7547173E-2,1.9860928E0,6.275862E-2,1.2302587E0,1.2522583E0,-3.4710746E-2,1.4770642E-1,1.065419E0,1.4101844E0,5.7798166E-2,-4.012739E-2,1.2590513E0,2.1287055E0,1.0971152E0,1.7770308E0,8.677686E-2,2.611399E-1,1.6938229E0,2.8891966E-1,3.4112486E-1,1.0275229E-1,-5.77959E-2,-2.3906084E-2,3.485477E-2,-3.3546325E-2,-4.7354724E-2,6.574585E-2,1.8497409E-1,3.409742E-2,1.3419689E-1,1.2844035E-2],"split_indices":[30,8,28,30,29,16,36,35,8,0,8,30,14,0,0,7,0,1,8,0,0,8,9,0,0,8,7,7,1,0,0,7,0,0,0,0,0,0,0,0,0,0,0,0,0],"split_type":[0,0,0,0,0,0,0,0,0,0,0,0,0,0,0,0,0,0,0,0,0,0,0,0,0,0,0,0,0,0,0,0,0,0,0,0,0,0,0,0,0,0,0,0,0],"sum_hessian":[2.1808164E3,2.0529797E3,1.2783675E2,2.0363267E3,1.6653063E1,1.21224495E2,6.6122456E0,1.9976328E3,3.8693882E1,1.3959185E1,2.6938777E0,1.1779593E2,3.4285717E0,2.2040818E0,4.4081635E0,1.9956736E3,1.9591838E0,3.4285717E1,4.4081635E0,1.4693879E0,1.2244899E0,1.0530613E1,1.0726531E2,1.2244899E0,2.2040818E0,1.9863674E3,9.306123E0,2.5224491E1,9.061225E0,1.4693879E0,2.9387758E0,4.1632657E0,6.3673472E0,1.06040825E2,1.2244899E0,1.968245E3,1.812245E1,3.9183676E0,5.3877554E0,2.2530613E1,2.6938777E0,2.9387758E0,6.1224494E0,2.9387758E0,1.2244899E0],"tree_param":{"num_deleted":"0","num_feature":"37","num_nodes":"45","size_leaf_vector":"0"}},{"base_weights":[-1.7902897E-1,-5.165614E-1,3.3611078E0,-5.622877E-1,6.9434375E-1,3.4175978E0,-4.2541435E-1,-5.743443E-1,-2.9244143E-1,-3.2262155E-1,2.556952E0,3.4436655E0,3.6842102E-1,-5.748807E-1,1.2844035E-1,-4.3435794E-1,4.2454156E-1,-4.957606E-1,5.6479216E-1,6.2177646E-1,3.122302E0,3.459495E0,5.7798165E-1,-5.784857E-1,-4.8082757E-1,-5.0222355E-1,1.1592356E0,1.8951964E0,-2.514178E-1,-5.4217505E-1,1.6568045E-1,-4.3076936E-2,1.8421052E0,-2.9056603E-1,2.2105262E0,3.2552717E0,8.677686E-1,3.4700985E0,1.0275229E0,1.0355029E0,-5.4721826E-1,-5.293575E-1,1.6568045E-1,5.7798165E-1,2.1952662E0,-5.207877E-1,8.677686E-1,1.2844035E-1,-5.6767124E-1,5.7798165E-1,-3.2110092E-1,6.275862E-1,-4.585153E-1,-4.4390243E-1,1.2844035E-1],"categories":[],"categories_nodes":[],"categories_segments":[],"categories_sizes":[],"default_left":[1,1,1,1,1,1,0,1,1,1,1,1,0,1,0,1,1,1,1,1,1,1,0,0,1,1,0,1,1,1,1,1,0,1,0,0,0,0,0,0,0,0,0,0,0,0,0,0,0,0,0,0,0,0,0],"id":4,"left_children":[1,3,5,7,9,11,-1,13,15,17,19,21,-1,23,-1,25,27,29,31,33,35,37,-1,-1,39,41,-1,43,45,47,49,51,-1,53,-1,-1,-1,-1,-1,-1,-1,-1,-1,-1,-1,-1,-1,-1,-1,-1,-1,-1,-1,-1,-1],"loss_changes":[2.6190552E3,1.1116345E2,4.2264893E1,6.105713E0,1.3956601E2,1.3682617E1,0E0,7.6934814E-1,8.783463E0,7.6957707E0,2.6481644E1,6.4553223E0,0E0,3.4692383E-1,0E0,8.265274E0,1.4860547E1,1.3460379E0,6.560242E0,1.096618E1,3.1280365E0,1.2094727E0,0E0,0E0,8.014189E0,1.3352242E0,0E0,5.78392E-1,3.706625E0,7.306671E-1,8.7780255E-1,2.1357422E0,0E0,4.044837E-1,0E0,0E0,0E0,0E0,0E0,0E0,0E0,0E0,0E0,0E0,0E0,0E0,0E0,0E0,0E0,0E0,0E0,0E0,0E0,0E0,0E0],"parents":[2147483647,0,0,1,1,2,2,3,3,4,4,5,5,7,7,8,8,9,9,10,10,11,11,13,13,15,15,16,16,17,17,18,18,19,19,20,20,21,21,24,24,25,25,27,27,28,28,29,29,30,30,31,31,33,33],"right_children":[2,4,6,8,10,12,-1,14,16,18,20,22,-1,24,-1,26,28,30,32,34,36,38,-1,-1,40,42,-1,44,46,48,50,52,-1,54,-1,-1,-1,-1,-1,-1,-1,-1,-1,-1,-1,-1,-1,-1,-1,-1,-1,-1,-1,-1,-1],"split_conditions":[1.7385606E0,5.8749493E-2,3.745378E0,1.1063721E-1,2.5759163E-1,1.5602298E0,-4.2541437E-2,1.3529314E-1,8.045479E-1,1.510551E0,7.214925E-2,2.481877E0,3.6842104E-2,6.0378504E-1,1.2844035E-2,2.1610464E-1,9.4269276E-1,1.8508341E0,2.494644E-1,4.8638812E-1,8.363164E-1,1.9252431E0,5.7798166E-2,-5.7848573E-2,7.695189E-1,5.981424E-1,1.1592356E-1,2.5458887E-1,1.8206646E0,8.8526094E-1,2.283446E0,5.1358265E-1,1.8421052E-1,1.5845003E0,2.2105263E-1,3.2552716E-1,8.677686E-2,3.4700987E-1,1.0275229E-1,1.0355029E-1,-5.472183E-2,-5.293575E-2,1.6568046E-2,5.7798166E-2,2.1952663E-1,-5.2078772E-2,8.677686E-2,1.2844035E-2,-5.6767125E-2,5.7798166E-2,-3.211009E-2,6.275862E-2,-4.585153E-2,-4.4390243E-2,1.2844035E-2],"split_indices":[9,31,16,5,9,22,0,25,19,28,28,6,0,36,0,35,5,31,22,4,7,3,0,0,36,3,0,13,28,31,6,36,0,31,0,0,0,0,0,0,0,0,0,0,0,0,0,0,0,0,0,0,0,0,0],"split_type":[0,0,0,0,0,0,0,0,0,0,0,0,0,0,0,0,0,0,0,0,0,0,0,0,0,0,0,0,0,0,0,0,0,0,0,0,0,0,0,0,0,0,0,0,0,0,0,0,0,0,0,0,0,0,0],"sum_hessian":[2.189388E3,1.9995919E3,1.8979593E2,1.927347E3,7.22449E1,1.8710205E2,2.6938777E0,1.8438369E3,8.351021E1,4.726531E1,2.4979593E1,1.8538777E2,1.7142859E0,1.8426124E3,1.2244899E0,7.0040825E1,1.3469389E1,3.991837E1,7.346939E0,6.1224494E0,1.8857143E1,1.8416328E2,1.2244899E0,1.7696328E3,7.29796E1,6.783674E1,2.2040818E0,3.6734695E0,9.795919E0,3.746939E1,2.4489799E0,5.632653E0,1.7142859E0,4.4081635E0,1.7142859E0,1.7387756E1,1.4693879E0,1.8293878E2,1.2244899E0,2.4489799E0,7.053062E1,6.538776E1,2.4489799E0,1.2244899E0,2.4489799E0,8.326531E0,1.4693879E0,1.2244899E0,3.62449E1,1.2244899E0,1.2244899E0,1.9591838E0,3.6734695E0,3.1836736E0,1.2244899E0],"tree_param":{"num_deleted":"0","num_feature":"37","num_nodes":"55","size_leaf_vector":"0"}},{"base_weights":[-4.7371796E-1,-5.571433E-1,1.9419605E0,-5.777399E-1,2.6702994E-1,3.3508193E-1,3.0503528E0,-5.7869905E-1,7.2538845E-2,-5.0694025E-1,1.5879291E0,-1.4163426E-1,2.3979237E0,3.1777885E0,-3.4710744E-1,-5.8107305E-1,-4.476946E-1,-3.6842105E-1,5.7798165E-1,-5.654352E-1,5.7798165E-1,-1.0566039E-1,2.085906E0,-3.508921E-1,1.4713376E0,5.7798165E-1,2.7510915E0,3.2910185E0,-3.2110092E-1,-5.1618034E-1,3.867403E-1,5.7798165E-1,-4.4390243E-1,2.5983999E0,-4.1420117E-1,-5.4616386E-1,1.53172705E-2,3.4090183E0,8.471337E-1,1.2844035E-1,-5.408219E-1,1.0275229E0,-3.4710744E-1,2.8495574E0,1.2844035E-1,-3.610315E-1,8.471337E-1],"categories":[],"categories_nodes":[],"categories_segments":[],"categories_sizes":[],"default_left":[1,1,1,1,1,1,1,1,1,1,1,1,1,1,0,0,1,0,0,0,0,1,1,1,0,0,0,1,0,1,1,0,0,1,0,0,1,0,0,0,0,0,0,0,0,0,0],"id":5,"left_children":[1,3,5,7,9,11,13,15,17,19,21,23,25,27,-1,-1,29,-1,-1,-1,-1,31,33,35,-1,-1,-1,37,-1,39,41,-1,-1,43,-1,-1,45,-1,-1,-1,-1,-1,-1,-1,-1,-1,-1],"loss_changes":[4.4339633E2,3.6180786E1,1.2986697E2,1.3336792E0,5.440464E1,3.0945137E1,1.9879303E1,3.829956E-1,1.090815E0,2.4728775E0,1.676075E1,9.367754E0,2.2008018E0,1.7655823E1,0E0,0E0,2.551982E0,0E0,0E0,0E0,0E0,1.507132E0,2.0557083E1,1.7260735E0,0E0,0E0,0E0,8.841461E0,0E0,6.805296E-1,2.0936582E0,0E0,0E0,7.5466156E0,0E0,0E0,3.2255416E0,0E0,0E0,0E0,0E0,0E0,0E0,0E0,0E0,0E0,0E0],"parents":[2147483647,0,0,1,1,2,2,3,3,4,4,5,5,6,6,7,7,8,8,9,9,10,10,11,11,12,12,13,13,16,16,21,21,22,22,23,23,27,27,29,29,30,30,33,33,36,36],"right_children":[2,4,6,8,10,12,14,16,18,20,22,24,26,28,-1,-1,30,-1,-1,-1,-1,32,34,36,-1,-1,-1,38,-1,40,42,-1,-1,44,-1,-1,46,-1,-1,-1,-1,-1,-1,-1,-1,-1,-1],"split_conditions":[2.0250483E0,4.3810934E-1,5.429424E-1,1.7588363E0,4.8713365E-1,6.091341E-1,1.3268044E0,4.2667565E-1,3.9496103E-1,4.5469603E-1,1.0241425E0,2.8579936E0,2.7888426E-1,1.0740753E0,-3.4710746E-2,-5.8107305E-2,1.6796885E0,-3.6842104E-2,5.7798166E-2,-5.6543518E-2,5.7798166E-2,8.647958E-1,1.1026497E0,2.3602395E0,1.4713375E-1,5.7798166E-2,2.7510914E-1,2.880764E-1,-3.211009E-2,4.8921734E-1,1.0542774E0,5.7798166E-2,-4.4390243E-2,6.669604E-1,-4.1420117E-2,-5.4616388E-2,1.2340146E0,3.4090182E-1,8.471337E-2,1.2844035E-2,-5.4082192E-2,1.0275229E-1,-3.4710746E-2,2.8495574E-1,1.2844035E-2,-3.610315E-2,8.471337E-2],"split_indices":[28,5,36,36,36,33,9,33,0,33,28,28,30,22,0,0,28,0,0,0,0,5,19,28,0,0,0,1,0,33,33,0,0,7,0,0,0,0,0,0,0,0,0,0,0,0,0],"split_type":[0,0,0,0,0,0,0,0,0,0,0,0,0,0,0,0,0,0,0,0,0,0,0,0,0,0,0,0,0,0,0,0,0,0,0,0,0,0,0,0,0,0,0,0,0,0,0],"sum_hessian":[2.1937961E3,2.1213062E3,7.24898E1,2.0698777E3,5.1428574E1,3.0122452E1,4.236735E1,2.066939E3,2.9387758E0,3.281633E1,1.8612246E1,2.5224491E1,4.8979597E0,4.089796E1,1.4693879E0,2.0267756E3,4.016327E1,1.7142859E0,1.2244899E0,3.1591839E1,1.2244899E0,4.4081635E0,1.42040825E1,2.302041E1,2.2040818E0,1.2244899E0,3.6734695E0,3.9673473E1,1.2244899E0,3.746939E1,2.6938777E0,1.2244899E0,3.1836736E0,1.1755103E1,2.4489799E0,1.4693878E1,8.326531E0,3.746939E1,2.2040818E0,1.2244899E0,3.62449E1,1.2244899E0,1.4693879E0,1.0530613E1,1.2244899E0,6.1224494E0,2.2040818E0],"tree_param":{"num_deleted":"0","num_feature":"37","num_nodes":"47","size_leaf_vector":"0"}},{"base_weights":[1.1830739E0,-5.547246E-1,3.2961895E0,-5.720325E-1,2.1636362E0,3.4916415E0,1.4587617E0,-5.778473E-1,1.9793103E0,2.795527E0,-3.4710744E-1,1.5319447E-1,3.2897525E0,-5.803436E-1,8.677686E-1,-2.2979073E-1,2.2337077E0,1.2844035E-1,3.3852158E0,-5.820109E-1,5.7798165E-1,-4.5743212E-1,1.3865814E0,2.7774796E0,-3.4710744E-1,-5.8284515E-1,-1.24260366E-1,-5.216756E-1,4.5562127E-1,2.1853657E0,-8.917198E-2],"categories":[],"categories_nodes":[],"categories_segments":[],"categories_sizes":[],"default_left":[1,1,1,1,1,0,1,1,0,0,0,1,1,1,0,1,1,0,0,1,0,1,1,0,0,0,0,0,0,0,0],"id":6,"left_children":[1,3,5,7,9,-1,11,13,-1,-1,-1,15,17,19,-1,21,23,-1,-1,25,-1,27,29,-1,-1,-1,-1,-1,-1,-1,-1],"loss_changes":[8.0857725E3,5.811255E1,3.517256E2,1.8975739E1,1.3435833E1,0E0,2.3195818E2,4.8341064E0,0E0,0E0,0E0,4.6581673E1,1.1766144E1,2.6511536E0,0E0,1.8934307E1,1.3709019E1,0E0,0E0,3.8479614E-1,0E0,2.8389778E0,7.7248144E0,0E0,0E0,0E0,0E0,0E0,0E0,0E0,0E0],"parents":[2147483647,0,0,1,1,2,2,3,3,4,4,6,6,7,7,11,11,12,12,13,13,15,15,16,16,19,19,21,21,22,22],"right_children":[2,4,6,8,10,-1,12,14,-1,-1,-1,16,18,20,-1,22,24,-1,-1,26,-1,28,30,-1,-1,-1,-1,-1,-1,-1,-1],"split_conditions":[2.5234137E0,3.3509593E0,5.8101576E-2,2.2940235E0,2.0597353E0,3.4916416E-1,3.6720963E0,2.3611088E0,1.9793104E-1,2.795527E-1,-3.4710746E-2,2.132765E0,9.7726154E-1,2.2926917E0,8.677686E-2,3.5899487E0,1.77209E-1,1.2844035E-2,3.3852157E-1,1.7505348E0,5.7798166E-2,3.5677314E0,2.1554953E-1,2.7774796E-1,-3.4710746E-2,-5.8284517E-2,-1.2426036E-2,-5.216756E-2,4.556213E-2,2.1853657E-1,-8.9171985E-3],"split_indices":[16,14,28,13,9,0,16,17,0,0,0,34,28,34,0,14,9,0,0,29,0,16,19,0,0,0,0,0,0,0,0],"split_type":[0,0,0,0,0,0,0,0,0,0,0,0,0,0,0,0,0,0,0,0,0,0,0,0,0,0,0,0,0,0,0],"sum_hessian":[2.2004082E3,1.2078368E3,9.925715E2,1.2009797E3,6.8571434E0,8.963266E2,9.62449E1,1.1990205E3,1.9591838E0,5.3877554E0,1.4693879E0,5.681633E1,3.9428574E1,1.1975511E3,1.4693879E0,4.8734695E1,8.081634E0,1.2244899E0,3.8204082E1,1.1963267E3,1.2244899E0,4.3346943E1,5.3877554E0,6.6122456E0,1.4693879E0,1.1938777E3,2.4489799E0,4.089796E1,2.4489799E0,3.1836736E0,2.2040818E0],"tree_param":{"num_deleted":"0","num_feature":"37","num_nodes":"31","size_leaf_vector":"0"}},{"base_weights":[2.4904773E-1,-4.9894166E-1,2.1648054E0,-5.579077E-1,2.2881904E0,8.378775E-1,2.4558485E0,-5.7040554E-1,1.5081928E0,2.3620605E0,1.3136992E-1,-9.778292E-2,1.7909083E0,2.463015E0,3.5864852E-2,-5.7229304E-1,4.350302E-1,1.7528768E0,-2.98173E-1,2.410989E0,5.8247334E-1,-4.8085397E-1,1.2480779E0,2.0762415E0,-1.4681365E-1,2.4672313E0,9.250246E-1,-5.741646E-1,-1.1434861E-1,1.2002941E0,-3.520717E-1,2.1619842E0,4.6643257E-1,-5.209969E-1,2.3264492E-1,1.7806598E0,-4.3930015E-1,2.1476603E0,-3.343457E-1,-3.558362E-1,5.783084E-1,2.4696164E0,6.706685E-1,-5.74801E-1,-1.595182E-1,-3.446046E-1,7.0487136E-1,1.0858489E0,-3.2680863E-1,-5.425467E-1,1.4265436E-1,5.0724745E-1,2.0781558E0,2.2295332E0,-1.2143161E-2,1.4622988E-1,-4.8221657E-1,2.4729688E0,1.0029595E0],"categories":[],"categories_nodes":[],"categories_segments":[],"categories_sizes":[],"default_left":[1,1,1,1,1,1,1,1,1,1,0,1,1,1,0,1,1,1,0,0,0,1,1,1,1,1,0,1,1,0,0,0,1,1,0,1,0,1,0,1,0,1,0,0,0,0,0,0,0,0,0,0,0,0,0,0,0,0,0],"id":7,"left_children":[1,3,5,7,9,11,13,15,17,19,-1,21,23,25,-1,27,29,31,-1,-1,-1,33,35,37,39,41,-1,43,45,-1,-1,-1,47,49,-1,51,-1,53,-1,55,-1,57,-1,-1,-1,-1,-1,-1,-1,-1,-1,-1,-1,-1,-1,-1,-1,-1,-1],"loss_changes":[3.2113184E3,2.662043E2,2.409602E2,4.1643646E1,5.042038E0,1.0246431E2,8.852539E0,3.2297058E0,4.8412685E0,1.4187775E0,0E0,3.093115E1,3.1753387E1,1.0510254E0,0E0,1.2783813E0,2.5375407E0,3.5969658E0,0E0,0E0,0E0,1.453577E0,1.274625E1,9.265015E0,1.453871E0,5.3759766E-1,0E0,3.2037354E-1,1.6824328E0,0E0,0E0,0E0,2.0187907E0,7.116556E-1,0E0,2.8543243E0,0E0,8.577026E0,0E0,5.153774E-1,0E0,3.1982422E-2,0E0,0E0,0E0,0E0,0E0,0E0,0E0,0E0,0E0,0E0,0E0,0E0,0E0,0E0,0E0,0E0,0E0],"parents":[2147483647,0,0,1,1,2,2,3,3,4,4,5,5,6,6,7,7,8,8,9,9,11,11,12,12,13,13,15,15,16,16,17,17,21,21,22,22,23,23,24,24,25,25,27,27,28,28,32,32,33,33,35,35,37,37,39,39,41,41],"right_children":[2,4,6,8,10,12,14,16,18,20,-1,22,24,26,-1,28,30,32,-1,-1,-1,34,36,38,40,42,-1,44,46,-1,-1,-1,48,50,-1,52,-1,54,-1,56,-1,58,-1,-1,-1,-1,-1,-1,-1,-1,-1,-1,-1,-1,-1,-1,-1,-1,-1],"split_conditions":[1.1658409E0,2.3226328E0,9.889676E-1,1.8550746E0,2.2783275E0,1.9815499E0,1.4452906E0,1.4569914E0,3.064007E-1,1.3898711E0,1.3136992E-2,2.1296444E0,1.6042979E0,2.3232136E0,3.5864853E-3,2.009244E0,6.2020093E-1,4.6939874E-1,-2.9817302E-2,2.4109891E-1,5.8247335E-2,1.289376E0,1.802281E0,4.9010235E-1,5.790507E-1,3.6027143E0,9.250247E-2,1.5215768E0,1.4196396E0,1.2002941E-1,-3.520717E-2,2.1619843E-1,1.0885743E0,1.5194821E0,2.3264492E-2,7.454574E-1,-4.3930016E-2,3.2473423E0,-3.343457E-2,3.678817E-1,5.783084E-2,1.06597364E-1,6.706685E-2,-5.7480104E-2,-1.595182E-2,-3.4460463E-2,7.0487134E-2,1.08584896E-1,-3.2680865E-2,-5.425467E-2,1.4265436E-2,5.0724745E-2,2.0781557E-1,2.2295332E-1,-1.2143161E-3,1.4622988E-2,-4.822166E-2,2.4729688E-1,1.0029595E-1],"split_indices":[3,19,22,22,15,3,31,24,36,12,0,19,28,28,0,19,16,17,0,0,0,36,15,21,27,16,0,10,28,0,0,0,6,8,0,2,0,15,0,19,0,23,0,0,0,0,0,0,0,0,0,0,0,0,0,0,0,0,0],"split_type":[0,0,0,0,0,0,0,0,0,0,0,0,0,0,0,0,0,0,0,0,0,0,0,0,0,0,0,0,0,0,0,0,0,0,0,0,0,0,0,0,0,0,0,0,0,0,0,0,0,0,0,0,0,0,0,0,0,0,0],"sum_hessian":[2.2392747E3,1.6110106E3,6.282642E2,1.5784166E3,3.2593987E1,1.1371085E2,5.1455334E2,1.5696458E3,8.770857E0,3.1422619E1,1.1713674E0,5.7831154E1,5.5879696E1,5.130163E2,1.5370387E0,1.5671345E3,2.511221E0,7.750599E0,1.0202577E0,3.0236485E1,1.1861347E0,4.5518097E1,1.2313056E1,4.8645126E1,7.2345695E0,5.1101123E2,2.0050864E0,1.560503E3,6.631492E0,1.0071044E0,1.5041165E0,5.364138E0,2.386461E0,4.334899E1,2.1691055E0,9.3170595E0,2.9959965E0,4.735132E1,1.2938106E0,6.0110946E0,1.223475E0,5.099596E2,1.0516454E0,1.5577261E3,2.776928E0,5.628777E0,1.0027152E0,1.1329224E0,1.2535386E0,4.2162395E1,1.1865962E0,2.2767282E0,7.040331E0,4.5590794E1,1.7605242E0,1.1772437E0,4.833851E0,5.0811206E2,1.8475208E0],"tree_param":{"num_deleted":"0","num_feature":"37","num_nodes":"59","size_leaf_vector":"0"}},{"base_weights":[3.7551977E-2,-2.745389E-1,1.5540348E0,2.4859745E-2,-5.614474E-1,2.1950946E0,-4.2282405E-1,5.24113E-1,-5.160205E-1,-5.656637E-1,5.2127177E-1,2.2939527E0,-1.0753042E-2,5.18524E-1,-5.2396387E-1,1.1161251E0,-5.615018E-1,-5.385748E-1,1.1822737E0,-5.6988096E-1,1.4071995E-1,9.5160836E-1,-3.113332E-1,2.3603718E0,-4.4059936E-2,-5.2154297E-1,1.258935E0,1.1601617E0,-4.505716E-1,-5.351888E-1,1.4926356E-1,1.5577346E0,-4.5130965E-1,-5.734852E-1,1.8372497E-1,-5.499553E-1,8.0572814E-1,1.8706572E0,-3.636412E-1,-5.7518554E-1,-3.8588998E-1,-2.8300858E-1,1.180364E0,2.4088871E0,-3.1456733E-1,-3.3588812E-1,5.9138286E-1,1.7395961E-1,1.5880417E0,-3.4214973E-1,1.667413E0,-5.467258E-1,1.4779142E-1,1.8590248E0,-4.9778345E-1,-4.7918075E-1,5.874661E-1,-3.093021E-1,5.7954204E-1,-3.3135206E-1,-5.632316E-1,1.6124618E0,-3.469696E-1,-4.4985974E-1,6.8823117E-1,1.4404525E-1,-4.4042033E-1,2.4227378E0,-3.3316544E-1,-4.6676543E-1,1.6531911E-1,-4.7062853E-1,1.4520738E-1,-5.5851847E-1,7.326849E-2],"categories":[],"categories_nodes":[],"categories_segments":[],"categories_sizes":[],"default_left":[1,1,1,1,1,1,1,1,1,1,1,1,1,1,1,1,1,1,1,1,1,0,0,1,1,0,1,1,0,1,0,1,1,0,1,1,1,0,0,0,1,1,0,1,1,1,0,0,0,0,0,1,0,0,0,0,0,0,0,0,0,0,0,0,0,0,0,0,0,0,0,0,0,0,0],"id":8,"left_children":[1,3,5,7,9,11,13,15,17,19,21,23,25,27,29,31,33,35,37,39,41,-1,-1,43,45,-1,47,49,-1,51,-1,53,55,-1,57,59,61,-1,-1,-1,63,65,-1,67,69,71,-1,-1,-1,-1,-1,73,-1,-1,-1,-1,-1,-1,-1,-1,-1,-1,-1,-1,-1,-1,-1,-1,-1,-1,-1,-1,-1,-1,-1],"loss_changes":[1.0453182E3,1.5736601E2,4.7864258E2,2.4258704E2,4.5653076E0,6.2132812E1,9.1399E0,3.0084766E2,1.7154198E1,2.857544E0,1.7829094E0,4.243567E1,9.225232E0,6.454423E0,7.192478E-1,2.1017392E2,1.5834084E0,6.964363E0,7.0278606E0,6.827698E-1,3.124792E0,0E0,0E0,3.5160034E1,1.7770845E0,0E0,1.1817675E0,5.157362E0,0E0,7.382469E-1,0E0,1.4728278E2,2.2297907E0,0E0,8.382004E-1,1.0418243E0,4.264235E0,0E0,0E0,0E0,2.3032498E0,4.202127E-1,0E0,1.0700195E1,4.8667222E-1,4.8779672E-1,0E0,0E0,0E0,0E0,0E0,6.423836E-1,0E0,0E0,0E0,0E0,0E0,0E0,0E0,0E0,0E0,0E0,0E0,0E0,0E0,0E0,0E0,0E0,0E0,0E0,0E0,0E0,0E0,0E0,0E0],"parents":[2147483647,0,0,1,1,2,2,3,3,4,4,5,5,6,6,7,7,8,8,9,9,10,10,11,11,12,12,13,13,14,14,15,15,16,16,17,17,18,18,19,19,20,20,23,23,24,24,26,26,27,27,29,29,31,31,32,32,34,34,35,35,36,36,40,40,41,41,43,43,44,44,45,45,51,51],"right_children":[2,4,6,8,10,12,14,16,18,20,22,24,26,28,30,32,34,36,38,40,42,-1,-1,44,46,-1,48,50,-1,52,-1,54,56,-1,58,60,62,-1,-1,-1,64,66,-1,68,70,72,-1,-1,-1,-1,-1,74,-1,-1,-1,-1,-1,-1,-1,-1,-1,-1,-1,-1,-1,-1,-1,-1,-1,-1,-1,-1,-1,-1,-1],"split_conditions":[1.0696099E0,2.1465445E0,1.2220277E0,1.2476971E0,1.7152256E0,1.7398725E0,1.4992366E0,1.601835E0,1.5466107E0,6.213275E-1,3.0491483E0,1.7899914E0,7.3168683E-1,1.114312E0,1.5841035E0,1.7517652E-1,1.3772151E0,5.241647E-1,2.0839443E0,8.688878E-1,2.7828968E-1,9.5160834E-2,-3.1133322E-2,2.221919E0,2.1367652E0,-5.21543E-2,1.4561591E0,1.3304651E0,-4.505716E-2,5.040964E-1,1.4926356E-2,2.2988143E0,4.7363466E-1,-5.734852E-2,1.6259667E0,1.5202445E0,7.6997375E-1,1.8706572E-1,-3.636412E-2,-5.7518553E-2,4.7112912E-1,6.720841E-1,1.18036404E-1,6.6672057E-1,1.3464358E0,4.8384425E-1,5.9138287E-2,1.7395962E-2,1.5880416E-1,-3.4214973E-2,1.667413E-1,1.1246158E0,1.4779142E-2,1.8590248E-1,-4.9778346E-2,-4.7918078E-2,5.8746614E-2,-3.093021E-2,5.7954203E-2,-3.3135206E-2,-5.632316E-2,1.6124618E-1,-3.4696963E-2,-4.4985976E-2,6.882312E-2,1.4404525E-2,-4.4042032E-2,2.422738E-1,-3.3316545E-2,-4.6676543E-2,1.6531913E-2,-4.7062855E-2,1.4520737E-2,-5.5851847E-2,7.326849E-3],"split_indices":[1,16,30,3,0,16,30,9,12,1,14,8,0,8,34,30,13,21,19,0,27,0,0,3,1,0,1,1,0,18,0,19,12,0,14,3,22,0,0,0,12,1,0,35,27,16,0,0,0,0,0,3,0,0,0,0,0,0,0,0,0,0,0,0,0,0,0,0,0,0,0,0,0,0,0],"split_type":[0,0,0,0,0,0,0,0,0,0,0,0,0,0,0,0,0,0,0,0,0,0,0,0,0,0,0,0,0,0,0,0,0,0,0,0,0,0,0,0,0,0,0,0,0,0,0,0,0,0,0,0,0,0,0,0,0,0,0,0,0,0,0,0,0,0,0,0,0,0,0,0,0,0,0],"sum_hessian":[2.2067642E3,1.8308049E3,3.759591E2,8.963485E2,9.344564E2,2.838132E2,9.2145905E1,4.6612665E2,4.3022183E2,9.313073E2,3.1491506E0,2.7160107E2,1.2212127E1,8.539413E0,8.360649E1,3.0161862E2,1.6450804E2,4.2525705E2,4.96478E0,9.259723E2,5.3350034E0,1.9818772E0,1.1672734E0,2.640892E2,7.511892E0,9.128861E0,3.0832658E0,5.0191064E0,3.5203073E0,8.2437035E1,1.1694543E0,2.3532442E2,6.62942E1,1.621314E2,2.376643E0,4.222731E2,2.983955E0,3.2897956E0,1.6749843E0,8.979575E2,2.8014772E1,4.3072696E0,1.0277339E0,2.5948242E2,4.606781E0,5.4708195E0,2.0410724E0,1.0733393E0,2.0099263E0,1.3490742E0,3.6700323E0,8.126382E1,1.1732216E0,2.0532434E2,3.0000076E1,6.5086586E1,1.207613E0,1.1556928E0,1.2209501E0,2.5663536E1,3.9660956E2,1.5207647E0,1.4631903E0,2.6988636E1,1.0261366E0,1.1829292E0,3.1243403E0,2.5829416E2,1.1882522E0,3.5182838E0,1.088497E0,4.29084E0,1.179979E0,7.9844284E1,1.4195292E0],"tree_param":{"num_deleted":"0","num_feature":"37","num_nodes":"75","size_leaf_vector":"0"}},{"base_weights":[-5.262727E-1,-5.481856E-1,3.475394E-1,-5.623721E-1,-3.1044042E-1,1.5755923E0,-4.3656E-1,-5.633921E-1,3.6782268E-1,-4.1232467E-1,1.4465499E0,2.119167E0,-4.680639E-1,2.1588586E-1,-5.564371E-1,-5.6390065E-1,1.3772826E-1,1.2655777E-2,-5.3618246E-1,2.2331474E0,-3.7573463E-1,2.2065008E0,5.6637895E-1,-4.3543443E-1,1.1089867E0,-5.649003E-1,-2.1180244E-1,-2.826004E-1,1.3021284E0,-5.470039E-1,4.3698184E-2,-5.663686E-1,-3.7062612E-1,4.035237E-1,-4.7102523E-1,-4.0275627E-1,6.868502E-1,1.6670067E0,1.14638336E-1,-5.5826277E-1,-1.0115595E-1],"categories":[],"categories_nodes":[],"categories_segments":[],"categories_sizes":[],"default_left":[1,1,1,1,1,1,1,1,0,1,1,1,0,1,0,1,0,1,1,0,0,0,0,0,0,1,1,1,1,1,0,0,0,0,0,0,0,0,0,0,0],"id":9,"left_children":[1,3,5,7,9,11,13,15,-1,17,19,21,-1,23,-1,25,-1,27,29,-1,-1,-1,-1,-1,-1,31,33,35,37,39,-1,-1,-1,-1,-1,-1,-1,-1,-1,-1,-1],"loss_changes":[4.028766E1,6.716858E0,5.060699E1,2.0355225E0,2.159246E1,2.3674664E1,2.656032E0,7.642212E-1,0E0,5.8831673E0,1.0371824E1,9.62059E-1,0E0,3.8294034E0,0E0,5.574341E-1,0E0,1.0331897E1,5.6650925E-1,0E0,0E0,0E0,0E0,0E0,0E0,3.3721924E-1,1.3140651E0,2.8528886E0,1.9988794E0,3.699932E-1,0E0,0E0,0E0,0E0,0E0,0E0,0E0,0E0,0E0,0E0,0E0],"parents":[2147483647,0,0,1,1,2,2,3,3,4,4,5,5,6,6,7,7,9,9,10,10,11,11,13,13,15,15,17,17,18,18,25,25,26,26,27,27,28,28,29,29],"right_children":[2,4,6,8,10,12,14,16,-1,18,20,22,-1,24,-1,26,-1,28,30,-1,-1,-1,-1,-1,-1,32,34,36,38,40,-1,-1,-1,-1,-1,-1,-1,-1,-1,-1,-1],"split_conditions":[2.4681919E0,1.2430278E0,1.0110773E0,1.9570801E0,1.686657E0,3.8667125E-1,1.3129236E0,2.1833735E0,3.678227E-2,1.1060005E0,7.527395E-1,4.294485E0,-4.680639E-2,1.9622729E0,-5.5643708E-2,3.9080443E0,1.3772826E-2,2.797655E0,1.6182973E0,2.2331475E-1,-3.7573464E-2,2.2065008E-1,5.6637894E-2,-4.3543443E-2,1.1089867E-1,1.4028112E0,6.0832524E-1,1.2758627E0,2.072158E0,1.4944249E0,4.3698186E-3,-5.663686E-2,-3.706261E-2,4.035237E-2,-4.7102522E-2,-4.027563E-2,6.868502E-2,1.6670068E-1,1.1463834E-2,-5.5826277E-2,-1.0115596E-2],"split_indices":[15,15,22,24,28,0,22,10,0,22,22,3,0,19,0,19,0,19,16,0,0,0,0,0,0,24,0,28,2,29,0,0,0,0,0,0,0,0,0,0,0],"split_type":[0,0,0,0,0,0,0,0,0,0,0,0,0,0,0,0,0,0,0,0,0,0,0,0,0,0,0,0,0,0,0,0,0,0,0,0,0,0,0,0,0],"sum_hessian":[2.0930986E3,2.0422571E3,5.0841675E1,1.9259672E3,1.1628986E2,1.9418726E1,3.1422947E1,1.9242515E3,1.7157515E0,1.10639435E2,5.650429E0,1.5309684E1,4.1090417E0,4.7530394E0,2.6669909E1,1.9230522E3,1.1991407E0,2.5170912E1,8.546852E1,3.7892962E0,1.8611327E0,1.4095892E1,1.2137915E0,3.0449014E0,1.7081381E0,1.9170056E3,6.0467024E0,2.1116592E1,4.054318E0,8.395842E1,1.5101016E0,1.9007249E3,1.6280775E1,1.627287E0,4.4194155E0,1.9308062E1,1.8085322E0,2.7924726E0,1.2618456E0,8.164455E1,2.3138728E0],"tree_param":{"num_deleted":"0","num_feature":"37","num_nodes":"41","size_leaf_vector":"0"}},{"base_weights":[-3.1743246E-1,-5.3964585E-1,2.0918674E0,-5.618278E-1,1.4104074E0,2.2239482E0,-1.6071631E-1,-5.638803E-1,9.013853E-1,1.6560296E0,-4.131344E-1,2.328422E0,-3.9973672E-2,-5.18648E-1,1.4892828E0,-5.689102E-1,-1.5062544E-1,-2.9531246E-1,1.6307392E0,1.7763709E0,-2.9437828E-1,2.3507771E0,2.6953448E-2,-4.9486324E-1,1.1927727E0,-5.709315E-1,-3.6189362E-1,-5.421928E-1,4.6892628E-1,1.2824785E0,2.3125346E0,2.3654792E0,1.4781696E-1,-5.7196105E-1,-3.0386844E-1,6.123324E-1,-4.4974637E-1,1.0586469E0,-4.604606E-1,1.479017E0,1.2825437E-2,1.9143884E0,2.4593751E0],"categories":[],"categories_nodes":[],"categories_segments":[],"categories_sizes":[],"default_left":[1,1,1,1,1,1,1,1,1,1,0,1,1,0,0,1,1,0,0,1,0,1,0,0,0,1,1,0,1,1,0,1,0,0,0,0,0,0,0,0,0,0,0],"id":10,"left_children":[1,3,5,7,9,11,13,15,17,19,-1,21,23,-1,-1,25,27,-1,-1,29,-1,31,-1,-1,-1,33,35,-1,37,39,-1,41,-1,-1,-1,-1,-1,-1,-1,-1,-1,-1,-1],"loss_changes":[1.1366433E3,8.482361E1,5.3704895E1,6.279114E0,1.0598045E1,4.0169434E1,7.1884913E0,3.9040527E0,3.1667778E0,5.148281E0,0E0,8.270691E0,5.3328934E0,0E0,0E0,5.86792E-1,6.1836085E0,0E0,0E0,1.9869652E0,0E0,4.845764E0,0E0,0E0,0E0,3.4197998E-1,2.0783043E0,0E0,5.969013E0,2.9705753E0,0E0,2.0384521E0,0E0,0E0,0E0,0E0,0E0,0E0,0E0,0E0,0E0,0E0,0E0],"parents":[2147483647,0,0,1,1,2,2,3,3,4,4,5,5,6,6,7,7,8,8,9,9,11,11,12,12,15,15,16,16,19,19,21,21,25,25,26,26,28,28,29,29,31,31],"right_children":[2,4,6,8,10,12,14,16,18,20,-1,22,24,-1,-1,26,28,-1,-1,30,-1,32,-1,-1,-1,34,36,-1,38,40,-1,42,-1,-1,-1,-1,-1,-1,-1,-1,-1,-1,-1],"split_conditions":[1.1933804E0,1.5377921E0,1.9250336E0,5.7073617E-1,1.4991658E0,2.234849E0,1.2451835E0,9.035835E-1,4.41208E-1,1.579128E0,-4.131344E-2,1.7700934E0,4.610063E-1,-5.1864803E-2,1.4892828E-1,1.8007746E0,9.798933E-1,-2.9531246E-2,1.6307393E-1,4.64988E-1,-2.9437829E-2,1.4128851E0,2.6953449E-3,-4.9486324E-2,1.19277276E-1,1.3412368E0,1.8126874E0,-5.4219283E-2,1.6318107E0,2.1597276E0,2.3125346E-1,1.6675758E0,1.4781696E-2,-5.7196107E-2,-3.0386845E-2,6.123324E-2,-4.4974636E-2,1.05864696E-1,-4.604606E-2,1.479017E-1,1.2825438E-3,1.9143884E-1,2.4593751E-1],"split_indices":[30,8,28,35,17,16,8,30,1,9,0,3,1,0,0,7,1,0,0,30,0,12,0,0,0,8,7,0,0,1,0,30,0,0,0,0,0,0,0,0,0,0,0],"split_type":[0,0,0,0,0,0,0,0,0,0,0,0,0,0,0,0,0,0,0,0,0,0,0,0,0,0,0,0,0,0,0,0,0,0,0,0,0,0,0,0,0,0,0],"sum_hessian":[2.1199556E3,1.9416501E3,1.7830534E2,1.9205161E3,2.1134047E1,1.6844145E2,9.863897E0,1.9184397E3,2.076479E0,1.8706266E1,2.4277806E0,1.60984E2,7.457458E0,8.66901E0,1.1948872E0,1.8949984E3,2.3441269E1,1.0116704E0,1.0648086E0,1.7703197E1,1.0030671E0,1.5941411E2,1.5698816E0,5.8845854E0,1.5728728E0,1.8749335E3,2.0064877E1,1.4439878E1,9.00139E0,1.0980424E1,6.7227745E0,1.58284E2,1.1301138E0,1.8665961E3,8.337492E0,1.1658974E0,1.889898E1,5.4219427E0,3.5794475E0,9.365736E0,1.6146877E0,3.0955845E1,1.2732815E2],"tree_param":{"num_deleted":"0","num_feature":"37","num_nodes":"43","size_leaf_vector":"0"}},{"base_weights":[-1.4756666E-1,-4.9846405E-1,2.4251535E0,-5.534594E-1,7.0302606E-1,2.4557247E0,-4.161597E-1,-5.6924933E-1,-2.0339902E-1,-2.523989E-1,2.169684E0,1.4501143E0,2.4993262E0,-5.6981874E-1,-5.025974E-3,-3.7680414E-1,7.6538694E-1,1.0819788E0,-4.1369006E-1,2.2735908E0,-3.1449023E-1,-1.0299476E-1,2.2141125E0,-5.737697E-1,-4.4740996E-1,-4.9791363E-1,2.9924574E-1,4.7157813E-2,2.0419128E0,-1.12714015E-1,1.9599847E0,-4.7581017E-1,9.877892E-1,2.3437471E0,1.6656119E-1,-4.338295E-1,3.7607792E-1,-5.4610485E-1,1.578153E-1,-5.658507E-1,8.577542E-3,-3.7688816E-1,1.5289344E0,-2.5173315E-1,1.1870446E0,-3.1663662E-1,1.4436859E-1,-5.4087377E-1,6.11237E-1,2.414344E0,1.8598983E-1],"categories":[],"categories_nodes":[],"categories_segments":[],"categories_sizes":[],"default_left":[1,1,1,1,1,1,0,1,1,1,1,1,0,1,0,1,1,1,1,1,0,1,0,0,1,1,1,1,0,1,0,1,0,1,0,0,0,0,0,0,0,0,0,0,0,0,0,0,0,0,0],"id":11,"left_children":[1,3,5,7,9,11,-1,13,15,17,19,21,-1,23,-1,25,27,29,31,33,-1,35,-1,-1,37,39,41,43,-1,45,-1,47,-1,49,-1,-1,-1,-1,-1,-1,-1,-1,-1,-1,-1,-1,-1,-1,-1,-1,-1],"loss_changes":[1.9183595E3,1.2392532E2,2.3176514E1,9.769104E0,1.1583284E2,7.446289E0,0E0,5.4663086E-1,1.351601E1,1.1362437E1,9.118805E0,1.5504507E1,0E0,5.6970215E-1,0E0,5.671978E0,1.1166088E1,6.2476735E0,4.472017E0,4.2470245E0,0E0,9.874046E-1,0E0,0E0,3.5490484E0,1.9862394E0,9.616302E0,3.325831E0,0E0,2.2288015E-1,0E0,3.491562E0,0E0,4.1641846E0,0E0,0E0,0E0,0E0,0E0,0E0,0E0,0E0,0E0,0E0,0E0,0E0,0E0,0E0,0E0,0E0,0E0],"parents":[2147483647,0,0,1,1,2,2,3,3,4,4,5,5,7,7,8,8,9,9,10,10,11,11,13,13,15,15,16,16,17,17,18,18,19,19,21,21,24,24,25,25,26,26,27,27,29,29,31,31,33,33],"right_children":[2,4,6,8,10,12,-1,14,16,18,20,22,-1,24,-1,26,28,30,32,34,-1,36,-1,-1,38,40,42,44,-1,46,-1,48,-1,50,-1,-1,-1,-1,-1,-1,-1,-1,-1,-1,-1,-1,-1,-1,-1,-1,-1],"split_conditions":[1.73927E0,7.335381E-2,3.6350985E0,9.7384654E-2,1.77209E-1,1.9034919E-1,-4.161597E-2,1.3529314E-1,1.1736381E-1,6.581291E-1,3.6487446E0,2.2442317E0,2.4993263E-1,1.6563652E0,-5.025974E-4,4.243959E-1,1.7885865E-1,7.8264004E-1,3.8107005E-1,1.4819422E0,-3.1449024E-2,6.185469E-1,2.2141126E-1,-5.737697E-2,2.8803372E-1,4.0190837E-1,1.492914E-1,1.5584164E0,2.0419128E-1,2.305522E0,1.9599847E-1,1.1349638E0,9.8778926E-2,8.0990124E-1,1.665612E-2,-4.338295E-2,3.7607793E-2,-5.4610487E-2,1.5781531E-2,-5.658507E-2,8.5775426E-4,-3.7688818E-2,1.5289344E-1,-2.5173316E-2,1.1870446E-1,-3.1663664E-2,1.4436859E-2,-5.4087378E-2,6.11237E-2,2.4143441E-1,1.8598983E-2],"split_indices":[9,31,16,5,9,31,0,25,7,31,16,9,0,28,0,3,19,19,18,0,0,17,0,0,36,8,36,14,0,28,0,5,0,1,0,0,0,0,0,0,0,0,0,0,0,0,0,0,0,0,0],"split_type":[0,0,0,0,0,0,0,0,0,0,0,0,0,0,0,0,0,0,0,0,0,0,0,0,0,0,0,0,0,0,0,0,0,0,0,0,0,0,0,0,0,0,0,0,0,0,0,0,0,0,0],"sum_hessian":[2.1226528E3,1.868598E3,2.540548E2,1.7873268E3,8.127126E1,2.5148465E2,2.5701466E0,1.7095874E3,7.77393E1,4.971399E1,3.1557276E1,1.1874446E1,2.396102E2,1.707854E3,1.7333928E0,6.645537E1,1.12839365E1,4.745528E0,4.496846E1,3.0371675E1,1.1856017E0,4.2005215E0,7.6739244E0,1.6508813E3,5.6972744E1,5.658251E1,9.872856E0,7.8846383E0,3.399299E0,2.379455E0,2.3660731E0,4.3692307E1,1.2761537E0,2.928427E1,1.0874052E0,2.5405352E0,1.6599863E0,4.9068726E1,7.904018E0,4.978722E1,6.7952933E0,6.817707E0,3.0551496E0,6.8639846E0,1.0206534E0,1.1977358E0,1.1817192E0,4.169892E1,1.9933879E0,2.8241364E1,1.0429053E0],"tree_param":{"num_deleted":"0","num_feature":"37","num_nodes":"51","size_leaf_vector":"0"}},{"base_weights":[-4.5358026E-1,-5.4488343E-1,1.5245397E0,-5.695888E-1,3.2173857E-1,2.4254677E-1,2.2163882E0,-5.736218E-1,-3.4996974E-1,-4.4280332E-1,1.45429E0,-1.6596355E-1,1.9731077E0,2.3192093E0,-3.9260232E-1,-5.741405E-1,-1.17342904E-1,-5.0209224E-1,8.887379E-1,-4.990147E-1,6.981324E-1,1.7807076E0,-4.488878E-1,-3.3016413E-1,1.5546789E0,2.2452657E0,7.4762815E-1,2.4127915E0,1.5418129E-1,2.061129E-1,-3.378068E-1,1.24804E-1,-5.295867E-1,-3.8130206E-1,1.9099227E0,-5.5779386E-1,5.997736E-2,2.1075788E0,-1.6297908E-1,-5.4508954E-1,9.342237E-2,2.466252E0,1.0879914E0,-3.2719246E-1,5.775128E-1,-5.575226E-1,-2.8550735E-1,-3.570258E-1,4.87282E-1,2.2846584E0,-3.0095807E-1,2.0594811E-1,-3.7282926E-1,-2.6850298E-1,1.2222028E0,1.9337893E0,-3.3618888E-1],"categories":[],"categories_nodes":[],"categories_segments":[],"categories_sizes":[],"default_left":[1,1,1,1,1,1,1,1,1,1,1,1,1,1,0,0,1,1,1,1,0,1,0,1,0,0,0,1,1,0,0,0,1,0,0,0,1,1,1,0,1,0,1,0,0,0,0,0,0,0,0,0,0,0,0,0,0],"id":12,"left_children":[1,3,5,7,9,11,13,15,17,19,21,23,25,27,-1,-1,29,31,33,35,-1,37,-1,39,-1,-1,-1,41,43,-1,-1,-1,45,-1,-1,-1,47,49,51,-1,53,-1,55,-1,-1,-1,-1,-1,-1,-1,-1,-1,-1,-1,-1,-1,-1],"loss_changes":[3.7559915E2,4.266577E1,8.0896255E1,1.5083008E0,4.8818733E1,2.3872099E1,1.6874481E1,3.8061523E-1,7.486202E0,2.5277157E0,1.4873531E1,8.386438E0,4.6857452E-1,1.1257263E1,0E0,0E0,3.1254128E-1,6.506214E-1,6.496139E0,1.1167145E0,0E0,1.2757866E1,0E0,2.4419599E0,0E0,0E0,0E0,1.2086487E0,8.9127904E-1,0E0,0E0,0E0,6.364536E-2,0E0,0E0,0E0,8.9381397E-1,7.852272E0,3.6642483E-1,0E0,4.2885575E0,0E0,5.3730817E0,0E0,0E0,0E0,0E0,0E0,0E0,0E0,0E0,0E0,0E0,0E0,0E0,0E0,0E0],"parents":[2147483647,0,0,1,1,2,2,3,3,4,4,5,5,6,6,7,7,8,8,9,9,10,10,11,11,12,12,13,13,16,16,17,17,18,18,19,19,21,21,23,23,27,27,28,28,32,32,36,36,37,37,38,38,40,40,42,42],"right_children":[2,4,6,8,10,12,14,16,18,20,22,24,26,28,-1,-1,30,32,34,36,-1,38,-1,40,-1,-1,-1,42,44,-1,-1,-1,46,-1,-1,-1,48,50,52,-1,54,-1,56,-1,-1,-1,-1,-1,-1,-1,-1,-1,-1,-1,-1,-1,-1],"split_conditions":[2.0246205E0,5.4212666E-1,3.6646378E-1,4.2667565E-1,3.1908527E-1,6.9056994E-1,1.3268044E0,1.8455272E0,1.6553495E0,3.482423E-1,1.100421E0,6.273533E-1,1.5414281E0,8.956628E-1,-3.9260235E-2,-5.741405E-2,2.7090836E0,5.0571644E-1,2.742091E-1,1.1097349E0,6.9813244E-2,8.9366144E-1,-4.488878E-2,2.3992672E0,1.554679E-1,2.2452657E-1,7.4762814E-2,2.6423365E-1,1.4537642E0,2.0611292E-2,-3.378068E-2,1.24804E-2,1.8362694E0,-3.8130205E-2,1.9099228E-1,-5.5779386E-2,1.0819256E0,6.004087E-1,6.5083206E-1,-5.4508954E-2,8.3974755E-1,2.4662521E-1,2.6423365E-1,-3.2719247E-2,5.775128E-2,-5.575226E-2,-2.8550735E-2,-3.5702582E-2,4.87282E-2,2.2846584E-1,-3.0095806E-2,2.0594811E-2,-3.7282925E-2,-2.6850298E-2,1.2222028E-1,1.9337893E-1,-3.361889E-2],"split_indices":[28,5,36,33,36,33,9,36,28,33,9,5,14,19,0,0,16,33,30,28,0,19,0,28,0,0,0,1,19,0,0,0,0,0,0,0,5,8,0,0,13,0,8,0,0,0,0,0,0,0,0,0,0,0,0,0,0],"split_type":[0,0,0,0,0,0,0,0,0,0,0,0,0,0,0,0,0,0,0,0,0,0,0,0,0,0,0,0,0,0,0,0,0,0,0,0,0,0,0,0,0,0,0,0,0,0,0,0,0,0,0,0,0,0,0,0,0],"sum_hessian":[2.0740305E3,1.9832166E3,9.081386E1,1.92858E3,5.4636578E1,3.2304432E1,5.8509426E1,1.8922198E3,3.636016E1,3.2981236E1,2.1655342E1,2.6866512E1,5.4379187E0,5.639784E1,2.1115863E0,1.8898134E3,2.4064484E0,3.291288E1,3.4472818E0,3.196883E1,1.0124066E0,1.8539883E1,3.1154597E0,2.5263718E1,1.6027958E0,3.7687843E0,1.6691346E0,5.395138E1,2.4464564E0,1.0017765E0,1.4046719E0,1.2341404E0,3.167874E1,1.8157078E0,1.6315742E0,2.8929028E1,3.0398018E0,1.5798686E1,2.741197E0,1.6569567E1,8.69415E0,5.1030506E1,2.9208748E0,1.2510165E0,1.19544E0,2.7273035E1,4.4057045E0,1.6216837E0,1.418118E0,1.4764602E1,1.0340848E0,1.0006315E0,1.7405658E0,7.1604095E0,1.5337405E0,1.608052E0,1.3128227E0],"tree_param":{"num_deleted":"0","num_feature":"37","num_nodes":"57","size_leaf_vector":"0"}},{"base_weights":[9.951373E-1,-5.48243E-1,2.3835988E0,-5.653682E-1,2.0285773E0,2.4670026E0,3.755996E-1,-5.7231677E-1,1.9032912E0,2.0555265E-1,2.266557E0,2.479203E0,-1.8789397E-1,2.225645E0,-4.5809278E-1,-5.740608E-1,5.8704984E-1,2.4855933E0,-1.806854E-1,6.437364E-1,-4.7223252E-1,5.3311545E-1,2.3326213E0,-5.373581E-1,1.049723E0,-5.7668304E-1,-2.071249E-1,2.488173E0,9.360528E-1,2.0303026E-1,-3.8718346E-1,-5.644342E-1,1.6958125E-1,1.0373902E0,-5.089842E-1,2.4893389E0,6.3318753E-1,-3.035043E-1,1.5555115E0],"categories":[],"categories_nodes":[],"categories_segments":[],"categories_sizes":[],"default_left":[1,1,1,1,1,1,1,1,0,0,0,1,1,1,1,1,0,1,1,0,0,0,0,1,0,0,1,1,1,0,0,0,0,0,0,0,0,0,0],"id":13,"left_children":[1,3,5,7,9,11,13,15,-1,-1,-1,17,19,21,23,25,-1,27,29,-1,-1,-1,-1,31,-1,-1,33,35,37,-1,-1,-1,-1,-1,-1,-1,-1,-1,-1],"loss_changes":[5.1986084E3,5.1868164E1,2.1292676E2,2.0689117E1,2.9207954E0,4.0171875E1,8.13811E1,2.642273E0,0E0,0E0,0E0,2.1190918E1,1.849756E0,1.7179108E0,4.9559283E0,9.7647095E-1,0E0,2.538086E0,3.8422164E-1,0E0,0E0,0E0,0E0,7.7661896E-1,0E0,0E0,4.150257E0,1.0507812E0,3.256787E0,0E0,0E0,0E0,0E0,0E0,0E0,0E0,0E0,0E0,0E0],"parents":[2147483647,0,0,1,1,2,2,3,3,4,4,5,5,6,6,7,7,11,11,12,12,13,13,14,14,15,15,17,17,18,18,23,23,26,26,27,27,28,28],"right_children":[2,4,6,8,10,12,14,16,-1,-1,-1,18,20,22,24,26,-1,28,30,-1,-1,-1,-1,32,-1,-1,34,36,38,-1,-1,-1,-1,-1,-1,-1,-1,-1,-1],"split_conditions":[2.5348392E0,3.3509593E0,6.702024E-2,2.1353378E0,1.4768229E0,1.9879862E0,5.8101576E-2,2.0815954E0,1.9032912E-1,2.0555265E-2,2.266557E-1,2.039654E0,1.1014011E0,1.1112223E0,2.7273495E0,2.2765675E0,5.8704983E-2,2.288854E0,4.0042776E-1,6.437364E-2,-4.722325E-2,5.3311545E-2,2.3326214E-1,3.6703134E0,1.049723E-1,-5.7668306E-2,1.8324229E-1,2.2656078E0,1.9779003E0,2.0303026E-2,-3.8718347E-2,-5.644342E-2,1.6958125E-2,1.0373902E-1,-5.089842E-2,2.489339E-1,6.331875E-2,-3.035043E-2,1.5555115E-1],"split_indices":[16,14,0,29,16,9,28,13,0,0,0,3,31,0,6,16,0,28,22,0,0,0,0,16,0,0,29,31,6,0,0,0,0,0,0,0,0,0,0],"split_type":[0,0,0,0,0,0,0,0,0,0,0,0,0,0,0,0,0,0,0,0,0,0,0,0,0,0,0,0,0,0,0,0,0,0,0,0,0,0,0],"sum_hessian":[2.4243315E3,1.1484014E3,1.27593E3,1.1415951E3,6.8062696E0,1.2248274E3,5.1102684E1,1.1391569E3,2.438259E0,1.0011069E0,5.805163E0,1.2192904E3,5.5369735E0,1.5356182E1,3.5746502E1,1.13795E3,1.2069334E0,1.2164335E3,2.8569546E0,1.0887194E0,4.4482536E0,1.2685926E0,1.4087589E1,3.457265E1,1.1738536E0,1.1293079E3,8.642123E0,1.2138069E3,2.6265764E0,1.0054381E0,1.8515165E0,3.3491493E1,1.0811567E0,1.2113332E0,7.43079E0,1.2127028E3,1.104036E0,1.0451822E0,1.5813944E0],"tree_param":{"num_deleted":"0","num_feature":"37","num_nodes":"39","size_leaf_vector":"0"}},{"base_weights":[2.142095E-1,-4.8843074E-1,1.7345171E0,-5.5827934E-1,1.5318071E0,8.0232555E-1,1.9384459E0,-5.65564E-1,9.679633E-1,6.752018E-1,2.0012405E0,-6.8853885E-2,1.5634012E0,1.9426774E0,7.840111E-2,-5.675854E-1,5.741024E-1,1.3202188E0,-3.3389252E-1,1.0495467E0,-4.8368722E-1,2.0351815E0,5.871689E-1,-4.186164E-1,1.0632039E0,1.7546694E0,-3.5466817E-1,1.9471215E0,3.0997625E-1,-5.6893873E-1,-9.2088684E-2,1.7727435E0,-3.100664E-1,1.1663966E0,-2.964287E-1,2.0774868E0,7.6569444E-1,-5.6085575E-1,1.7347835E-1,1.4178557E0,-4.2793915E-1,1.8009018E0,-3.195151E-1,1.9943625E-1,-4.8085856E-1,1.9504743E0,1.2002671E-1,-5.6960315E-1,-3.5256674E-3,6.467301E-1,-4.3661517E-1,1.3705301E0,2.8579065E-1,9.872821E-1,-1.4239942E-1,1.6507773E0,-3.2705095E-1,1.8437839E0,-3.0996153E-1,1.9552436E0,7.8371483E-1],"categories":[],"categories_nodes":[],"categories_segments":[],"categories_sizes":[],"default_left":[1,1,1,1,1,1,1,1,1,1,1,1,1,1,0,1,0,1,0,1,0,1,0,1,1,1,1,1,0,1,1,0,0,1,0,0,0,0,1,1,0,1,0,0,0,1,0,0,0,0,0,0,0,0,0,0,0,0,0,0,0],"id":14,"left_children":[1,3,5,7,9,11,13,15,17,19,21,23,25,27,-1,29,-1,31,-1,33,-1,35,-1,37,39,41,43,45,-1,47,49,-1,-1,51,-1,-1,-1,-1,53,55,-1,57,-1,-1,-1,59,-1,-1,-1,-1,-1,-1,-1,-1,-1,-1,-1,-1,-1,-1,-1],"loss_changes":[2.387891E3,2.1661978E2,1.3275781E2,1.6987549E1,1.9304077E1,8.532509E1,4.404785E0,3.7175598E0,3.8310862E0,9.051142E0,3.731537E-1,2.4553068E1,2.5804108E1,3.5878906E0,0E0,8.9367676E-1,0E0,4.991164E0,0E0,2.7364712E0,0E0,1.0110474E-1,0E0,4.0751705E0,8.356237E0,6.5769043E0,5.8927166E-1,3.2937012E0,0E0,5.4867554E-1,1.6481382E0,0E0,0E0,2.1589642E0,0E0,0E0,0E0,0E0,2.688747E0,5.445486E0,0E0,6.126663E0,0E0,0E0,0E0,1.6660156E0,0E0,0E0,0E0,0E0,0E0,0E0,0E0,0E0,0E0,0E0,0E0,0E0,0E0,0E0,0E0],"parents":[2147483647,0,0,1,1,2,2,3,3,4,4,5,5,6,6,7,7,8,8,9,9,10,10,11,11,12,12,13,13,15,15,17,17,19,19,21,21,23,23,24,24,25,25,26,26,27,27,29,29,30,30,33,33,38,38,39,39,41,41,45,45],"right_children":[2,4,6,8,10,12,14,16,18,20,22,24,26,28,-1,30,-1,32,-1,34,-1,36,-1,38,40,42,44,46,-1,48,50,-1,-1,52,-1,-1,-1,-1,54,56,-1,58,-1,-1,-1,60,-1,-1,-1,-1,-1,-1,-1,-1,-1,-1,-1,-1,-1,-1,-1],"split_conditions":[1.1634843E0,1.8645644E0,1.1289779E0,1.7669206E0,1.1851201E0,2.0921993E0,1.6566806E0,2.0115097E0,3.6646228E0,4.4392487E-1,5.585059E-1,2.2794168E0,1.5642387E0,5.0404125E-1,7.840111E-3,1.5253184E0,5.741024E-2,1.4692092E0,-3.338925E-2,1.3693122E0,-4.8368722E-2,4.836925E-1,5.871689E-2,7.0586014E-1,5.8411765E-1,3.4824214E0,1.2450511E0,3.6817508E0,3.0997625E-2,1.2564504E0,3.1366973E0,1.7727435E-1,-3.100664E-2,3.2416004E-1,-2.964287E-2,2.0774868E-1,7.6569445E-2,-5.6085575E-2,1.1833425E0,2.1995363E0,-4.2793915E-2,4.9010235E-1,-3.1951513E-2,1.9943625E-2,-4.8085857E-2,2.8935661E0,1.2002671E-2,-5.6960315E-2,-3.5256674E-4,6.4673014E-2,-4.3661516E-2,1.3705301E-1,2.8579066E-2,9.872821E-2,-1.4239942E-2,1.6507773E-1,-3.2705095E-2,1.8437839E-1,-3.0996153E-2,1.9552436E-1,7.837149E-2],"split_indices":[3,19,22,22,22,3,31,2,16,12,5,19,28,21,0,15,0,28,0,9,0,31,0,2,28,15,15,15,0,24,14,0,0,3,0,0,0,0,2,15,0,21,0,0,0,14,0,0,0,0,0,0,0,0,0,0,0,0,0,0,0],"split_type":[0,0,0,0,0,0,0,0,0,0,0,0,0,0,0,0,0,0,0,0,0,0,0,0,0,0,0,0,0,0,0,0,0,0,0,0,0,0,0,0,0,0,0,0,0,0,0,0,0,0,0,0,0,0,0,0,0,0,0,0,0],"sum_hessian":[2.23358E3,1.5280433E3,7.0553674E2,1.4776771E3,5.0366222E1,1.2752661E2,5.7801013E2,1.4712842E3,6.3928895E0,1.8693434E1,3.1672789E1,5.9886242E1,6.764037E1,5.766539E2,1.3562533E0,1.4691804E3,2.1038632E0,5.020374E0,1.3725156E0,1.4200675E1,4.4927597E0,3.0501444E1,1.1713448E0,4.623241E1,1.365383E1,6.158442E1,6.055954E0,5.748965E2,1.7574143E0,1.4648148E3,4.3655686E0,3.8612182E0,1.1591557E0,1.3189093E1,1.0115824E0,2.8901823E1,1.5996214E0,3.731981E1,8.912602E0,1.1070082E1,2.583748E0,6.037055E1,1.2138692E0,1.0156735E0,5.0402803E0,5.73776E2,1.1204352E0,1.463088E3,1.7268105E0,1.1093881E0,3.2561805E0,1.025543E1,2.9336622E0,1.8977815E0,7.014821E0,9.813992E0,1.2560906E0,5.929255E1,1.078E0,5.7076715E2,3.0088696E0],"tree_param":{"num_deleted":"0","num_feature":"37","num_nodes":"61","size_leaf_vector":"0"}},{"base_weights":[4.328686E-2,-2.605649E-1,1.2611245E0,4.463523E-2,-5.549541E-1,1.7291788E0,-3.757645E-1,5.2134037E-1,-4.9242085E-1,-5.5931973E-1,3.0117196E-1,1.7879058E0,-4.162498E-1,3.6403084E-1,-4.949499E-1,1.0591865E0,-5.029208E-1,-5.229421E-1,1.2539959E0,-5.6699014E-1,-2.7538058E-1,9.824672E-1,-3.9847392E-1,1.823643E0,-4.8638484E-1,-5.085701E-1,1.8324773E-1,8.566305E-1,-3.3680096E-1,-3.3588973E-1,-5.624415E-1,1.4123771E0,-2.902253E-1,2.539032E-1,-5.6890494E-1,-5.4220074E-1,6.250117E-1,1.7431145E0,-3.558458E-1,-5.681348E-1,1.4913067E-1,7.710747E-1,-4.5809245E-1,1.865944E0,4.7073334E-2,1.1887293E-1,2.0090065E0,-4.7118625E-1,1.6052051E-1,-4.3398622E-1,6.095285E-1,1.6559072E0,-5.1830924E-1,4.6364796E-1,-5.8412087E-1,8.632509E-1,-5.13574E-1,-3.2813737E-1,-5.563085E-1,1.3689771E0,-4.2516872E-1,-5.6928355E-1,-3.202162E-1,1.4197679E0,-3.2874024E-1,-5.4197484E-1,-5.8273226E-2,1.8943982E0,-4.5879585E-1,-3.5314965E-1,8.7397903E-1,-4.154466E-1,5.1080954E-1,-4.6804762E-1,1.5713923E-1],"categories":[],"categories_nodes":[],"categories_segments":[],"categories_sizes":[],"default_left":[1,1,1,1,1,1,1,1,1,1,1,1,1,1,1,1,1,1,1,1,1,0,0,1,0,0,0,1,1,1,0,1,1,1,0,1,1,0,0,1,0,1,1,1,1,1,0,0,0,1,0,0,0,0,0,0,0,0,0,0,0,0,0,0,0,0,0,0,0,0,0,0,0,0,0],"id":15,"left_children":[1,3,5,7,9,11,13,15,17,19,21,23,25,27,29,31,33,35,37,39,41,-1,-1,43,-1,-1,-1,45,47,49,-1,51,53,55,-1,57,59,-1,-1,61,-1,63,65,67,69,71,-1,-1,-1,73,-1,-1,-1,-1,-1,-1,-1,-1,-1,-1,-1,-1,-1,-1,-1,-1,-1,-1,-1,-1,-1,-1,-1,-1,-1],"loss_changes":[8.080495E2,1.5705603E2,3.3471558E2,2.2018706E2,3.493744E0,4.348828E1,8.801446E0,2.5150836E2,2.2214958E1,1.7724915E0,2.852916E0,2.7740967E1,6.383585E-1,5.1710835E0,7.1964455E-1,1.4293268E2,8.0116005E0,9.142845E0,6.3222895E0,7.9074097E-1,5.1786065E0,0E0,0E0,2.4373901E1,0E0,0E0,0E0,7.0620875E0,5.1375175E-1,2.833094E0,0E0,1.1237457E2,1.4198774E1,6.674886E0,0E0,1.0018463E0,6.078561E0,0E0,0E0,6.271362E-2,0E0,3.4090738E0,7.100463E-1,2.1898315E1,3.1534636E0,1.5312504E0,0E0,0E0,0E0,5.905309E-1,0E0,0E0,0E0,0E0,0E0,0E0,0E0,0E0,0E0,0E0,0E0,0E0,0E0,0E0,0E0,0E0,0E0,0E0,0E0,0E0,0E0,0E0,0E0,0E0,0E0],"parents":[2147483647,0,0,1,1,2,2,3,3,4,4,5,5,6,6,7,7,8,8,9,9,10,10,11,11,12,12,13,13,14,14,15,15,16,16,17,17,18,18,19,19,20,20,23,23,27,27,28,28,29,29,31,31,32,32,33,33,35,35,36,36,39,39,41,41,42,42,43,43,44,44,45,45,49,49],"right_children":[2,4,6,8,10,12,14,16,18,20,22,24,26,28,30,32,34,36,38,40,42,-1,-1,44,-1,-1,-1,46,48,50,-1,52,54,56,-1,58,60,-1,-1,62,-1,64,66,68,70,72,-1,-1,-1,74,-1,-1,-1,-1,-1,-1,-1,-1,-1,-1,-1,-1,-1,-1,-1,-1,-1,-1,-1,-1,-1,-1,-1,-1,-1],"split_conditions":[8.5410875E-1,1.9552745E0,1.1896099E0,1.2341511E0,1.6572332E0,3.215342E0,1.5732437E0,1.5328526E-1,4.832884E-1,3.8361746E-1,1.46451E0,4.0025872E-1,7.349602E-1,1.065419E0,1.1963875E0,1.4557893E0,1.0891069E0,1.4846138E0,2.0087404E0,1.7161528E0,8.8045794E-1,9.8246716E-2,-3.9847393E-2,1.5843215E0,-4.8638485E-2,-5.0857008E-2,1.8324774E-2,8.697137E-1,1.3298876E0,1.1335983E0,-5.6244154E-2,2.3022823E0,1.8722606E-1,5.2555263E-1,-5.6890495E-2,1.5160007E0,1.5425067E0,1.7431144E-1,-3.558458E-2,9.153579E-1,1.4913067E-2,1.8485918E0,9.181938E-1,1.4839904E0,1.29934E0,1.1380732E0,2.0090066E-1,-4.7118627E-2,1.605205E-2,5.0771743E-1,6.095285E-2,1.6559072E-1,-5.1830925E-2,4.6364795E-2,-5.8412086E-2,8.6325094E-2,-5.13574E-2,-3.281374E-2,-5.563085E-2,1.3689771E-1,-4.2516872E-2,-5.6928355E-2,-3.2021623E-2,1.4197679E-1,-3.2874025E-2,-5.4197486E-2,-5.8273226E-3,1.8943982E-1,-4.5879584E-2,-3.5314966E-2,8.73979E-2,-4.154466E-2,5.1080953E-2,-4.6804763E-2,1.5713923E-2],"split_indices":[1,16,30,3,0,16,30,31,21,7,6,35,0,8,8,28,9,12,3,12,34,0,0,22,0,0,0,16,14,8,0,19,36,28,0,3,22,0,0,27,0,6,28,31,14,0,0,0,0,20,0,0,0,0,0,0,0,0,0,0,0,0,0,0,0,0,0,0,0,0,0,0,0,0,0],"split_type":[0,0,0,0,0,0,0,0,0,0,0,0,0,0,0,0,0,0,0,0,0,0,0,0,0,0,0,0,0,0,0,0,0,0,0,0,0,0,0,0,0,0,0,0,0,0,0,0,0,0,0,0,0,0,0,0,0,0,0,0,0,0,0,0,0,0,0,0,0,0,0,0,0,0,0],"sum_hessian":[2.181781E3,1.7467507E3,4.3503012E2,8.580445E2,8.887063E2,3.3825314E2,9.6776955E1,4.545782E2,4.0346628E2,8.845425E2,4.1638494E0,3.29403E2,8.850147E0,1.3142965E1,8.363399E1,2.980409E2,1.5653728E2,3.9722476E2,6.241537E0,8.6030505E2,2.4237383E1,1.9047871E0,2.2590623E0,3.245021E2,4.9009166E0,7.8005633E0,1.0495839E0,7.58754E0,5.555425E0,2.6695774E1,5.6938217E1,2.3617781E2,6.186309E1,1.2324929E1,1.4421234E2,3.9118964E2,6.035107E0,4.7235837E0,1.5179536E0,8.591385E2,1.1665882E0,3.1241438E0,2.111324E1,3.169061E2,7.5960026E0,5.2985396E0,2.2890007E0,4.414972E0,1.1404535E0,2.467632E1,2.0194535E0,2.0985036E2,2.632746E1,1.7190372E1,4.4672718E1,6.800668E0,5.524261E0,2.568709E1,3.6550256E2,3.354886E0,2.6802213E0,8.5388556E2,5.2529073E0,1.7821062E0,1.3420377E0,1.7157942E1,3.9552982E0,3.1325702E2,3.649078E0,5.5046663E0,2.0913363E0,2.2166457E0,3.0818942E0,2.352877E1,1.1475493E0],"tree_param":{"num_deleted":"0","num_feature":"37","num_nodes":"75","size_leaf_vector":"0"}},{"base_weights":[-5.111844E-1,-5.358012E-1,3.9229417E-1,-5.5372757E-1,-2.1117358E-1,1.3858103E0,-4.5098338E-1,-5.578995E-1,-2.6511854E-1,-3.3246967E-1,1.7193744E0,1.8285731E0,-4.757945E-1,-5.112068E-1,-1.3617016E-2,-5.605722E-1,-2.1146436E-1,4.1166988E-1,-4.9783346E-1,2.073469E-1,-4.853604E-1,-5.487723E-1,1.6718148E-1,4.1597658E-1,-3.815467E-1,-5.611245E-1,1.6530341E-1,4.357627E-1,-5.2098817E-1,1.0738778E0,-4.325357E-1,-5.43486E-1,1.7664757E-1,-3.009551E-1,1.4557939E0,-5.106857E-1,6.2702525E-1,-5.616676E-1,-2.8806908E-2,7.808162E-1,-3.3736324E-1,2.086035E0,-3.6367273E-1,2.3941594E-1,-5.289321E-1,1.6841452E0,1.6305831E-1,-5.2325106E-1,1.6273785E-1],"categories":[],"categories_nodes":[],"categories_segments":[],"categories_sizes":[],"default_left":[1,1,1,1,1,1,1,1,1,1,0,0,0,1,1,1,1,1,1,1,1,0,0,0,0,1,0,1,0,1,0,0,0,1,1,1,0,0,0,0,0,0,0,0,0,0,0,0,0],"id":16,"left_children":[1,3,5,7,9,11,13,15,17,19,-1,-1,-1,21,23,25,27,29,31,33,35,-1,-1,-1,-1,37,-1,39,-1,41,-1,-1,-1,43,45,47,-1,-1,-1,-1,-1,-1,-1,-1,-1,-1,-1,-1,-1],"loss_changes":[4.4205383E1,1.1091919E1,4.5066963E1,2.0490723E0,2.4553282E1,2.1145607E1,7.686534E-1,1.5460205E0,4.600109E0,8.122507E0,0E0,0E0,0E0,7.506385E-1,8.844156E-1,8.076782E-1,3.3060148E0,4.7622166E0,7.493558E-1,1.449632E1,2.4624462E0,0E0,0E0,0E0,0E0,4.991455E-1,0E0,1.7351297E0,0E0,7.4450254E0,0E0,0E0,0E0,2.1681833E0,1.6681404E0,7.189522E-1,0E0,0E0,0E0,0E0,0E0,0E0,0E0,0E0,0E0,0E0,0E0,0E0,0E0],"parents":[2147483647,0,0,1,1,2,2,3,3,4,4,5,5,6,6,7,7,8,8,9,9,13,13,14,14,15,15,16,16,17,17,18,18,19,19,20,20,25,25,27,27,29,29,33,33,34,34,35,35],"right_children":[2,4,6,8,10,12,14,16,18,20,-1,-1,-1,22,24,26,28,30,32,34,36,-1,-1,-1,-1,38,-1,40,-1,42,-1,-1,-1,44,46,48,-1,-1,-1,-1,-1,-1,-1,-1,-1,-1,-1,-1,-1],"split_conditions":[2.4623623E0,1.3007407E0,1.1289779E0,1.448145E0,1.9027855E0,3.8667125E-1,1.0745721E0,1.4028112E0,1.522525E0,1.1204822E0,1.7193745E-1,1.8285732E-1,-4.757945E-2,6.257572E-1,2.7903104E0,3.562563E0,1.5378485E0,6.8650883E-1,5.026088E-1,2.4667761E0,1.6323069E0,-5.487723E-2,1.6718147E-2,4.159766E-2,-3.8154673E-2,1.9007766E0,1.653034E-2,7.582431E-1,-5.2098818E-2,2.2877162E0,-4.325357E-2,-5.43486E-2,1.7664758E-2,3.032764E-1,6.4993256E-1,1.5772773E0,6.270253E-2,-5.6166764E-2,-2.8806909E-3,7.808162E-2,-3.3736326E-2,2.086035E-1,-3.6367275E-2,2.3941595E-2,-5.289321E-2,1.6841452E-1,1.6305832E-2,-5.2325107E-2,1.6273785E-2],"split_indices":[15,15,22,32,28,0,6,24,22,22,0,0,0,36,15,2,22,0,36,19,17,0,0,0,0,10,0,0,0,14,0,0,0,14,0,16,0,0,0,0,0,0,0,0,0,0,0,0,0],"split_type":[0,0,0,0,0,0,0,0,0,0,0,0,0,0,0,0,0,0,0,0,0,0,0,0,0,0,0,0,0,0,0,0,0,0,0,0,0,0,0,0,0,0,0,0,0,0,0,0,0],"sum_hessian":[1.977141E3,1.9250956E3,5.204543E1,1.8236833E3,1.0141215E2,2.3598846E1,2.8446585E1,1.7967773E3,2.6906038E1,9.619595E1,5.2161946E0,1.9078882E1,4.519964E0,2.485529E1,3.5912948E0,1.782408E3,1.436941E1,6.6876955E0,2.0218342E1,2.1153254E1,7.50427E1,2.3732197E1,1.1230938E0,1.5965642E0,1.9947306E0,1.7812797E3,1.128283E0,4.5167823E0,9.852627E0,3.5953727E0,3.0923228E0,1.9118513E1,1.0998281E0,1.5572063E1,5.5811896E0,7.390113E1,1.1415709E0,1.7794089E3,1.8707528E0,3.1160932E0,1.4006892E0,1.8451364E0,1.7502362E0,4.605509E0,1.0966555E1,4.4859977E0,1.095192E0,7.276639E1,1.134743E0],"tree_param":{"num_deleted":"0","num_feature":"37","num_nodes":"49","size_leaf_vector":"0"}},{"base_weights":[-2.8699434E-1,-5.384707E-1,1.6786485E0,-5.5370104E-1,1.3351278E0,9.154571E-1,1.9646977E0,-5.574802E-1,1.50727E0,3.8289008E-1,1.7177402E0,-7.740039E-2,1.8127226E0,-5.628071E-1,1.4959465E-3,6.193104E-1,-3.1226084E-1,1.8432508E0,4.925722E-1,-3.2955626E-1,7.847464E-1,1.8581017E0,1.7965034E-1,-5.649698E-1,-6.736519E-2,-1.8140887E-1,1.1935226E0,1.8983287E-1,9.518908E-1,-3.957672E-1,4.2840564E-1,3.470263E-1,1.4247456E0,1.9123113E0,7.6613945E-1,-5.6654686E-1,-3.2330886E-1,6.8417907E-1,-2.5161272E-1,5.260355E-1,-3.8685638E-1,-5.4512537E-1,2.1265829E-2,-7.9500444E-2,5.8234024E-1,1.9459237E0,5.733528E-1,1.1576128E-1,1.0567917E0],"categories":[],"categories_nodes":[],"categories_segments":[],"categories_sizes":[],"default_left":[1,1,1,1,1,1,0,1,0,1,1,1,1,1,1,1,0,0,0,1,1,1,0,1,1,1,0,0,0,1,0,1,0,1,1,0,0,0,0,0,0,0,0,0,0,0,0,0,0],"id":17,"left_children":[1,3,5,7,9,11,-1,13,-1,15,17,19,21,23,25,27,-1,-1,-1,29,31,33,-1,35,37,39,-1,-1,-1,41,-1,43,-1,45,47,-1,-1,-1,-1,-1,-1,-1,-1,-1,-1,-1,-1,-1,-1],"loss_changes":[1.0216828E3,5.3004395E1,4.9388794E1,1.4996399E1,4.8299026E0,5.8754227E1,0E0,5.4049683E0,0E0,1.1144035E0,7.0018196E-1,7.2571797E0,2.2304764E0,1.8882446E0,4.1692977E0,4.6449435E-1,0E0,0E0,0E0,1.4549019E0,1.6292267E0,5.214615E-1,0E0,4.9890137E-1,1.4113125E0,2.6141598E0,0E0,0E0,0E0,1.5111175E0,0E0,6.308125E-1,0E0,2.9315948E-1,4.930979E-1,0E0,0E0,0E0,0E0,0E0,0E0,0E0,0E0,0E0,0E0,0E0,0E0,0E0,0E0],"parents":[2147483647,0,0,1,1,2,2,3,3,4,4,5,5,7,7,9,9,10,10,11,11,12,12,13,13,14,14,15,15,19,19,20,20,21,21,23,23,24,24,25,25,29,29,31,31,33,33,34,34],"right_children":[2,4,6,8,10,12,-1,14,-1,16,18,20,22,24,26,28,-1,-1,-1,30,32,34,-1,36,38,40,-1,-1,-1,42,-1,44,-1,46,48,-1,-1,-1,-1,-1,-1,-1,-1,-1,-1,-1,-1,-1,-1],"split_conditions":[1.1078076E0,1.6778626E0,8.8605213E-1,5.7073617E-1,5.083357E-1,1.728488E0,1.9646977E-1,1.2601335E0,1.50727E-1,1.2137487E0,1.1623912E0,1.0962272E0,1.5957329E0,2.0717149E0,3.364409E-1,6.9397336E-1,-3.1226084E-2,1.8432508E-1,4.925722E-2,1.3662837E0,5.433772E-1,1.4638114E0,1.7965034E-2,9.0102947E-1,2.1295214E0,1.3494484E0,1.1935226E-1,1.8983288E-2,9.518909E-2,1.152367E0,4.2840566E-2,1.0177169E0,1.4247456E-1,1.107171E0,1.4092727E0,-5.6654688E-2,-3.2330886E-2,6.841791E-2,-2.5161272E-2,5.260355E-2,-3.868564E-2,-5.4512538E-2,2.126583E-3,-7.950044E-3,5.8234025E-2,1.9459237E-1,5.7335284E-2,1.1576128E-2,1.0567917E-1],"split_indices":[30,8,8,35,1,30,0,8,0,29,16,7,13,7,30,13,0,0,0,2,29,6,0,30,7,8,0,0,0,1,0,0,0,5,1,0,0,0,0,0,0,0,0,0,0,0,0,0,0],"split_type":[0,0,0,0,0,0,0,0,0,0,0,0,0,0,0,0,0,0,0,0,0,0,0,0,0,0,0,0,0,0,0,0,0,0,0,0,0,0,0,0,0,0,0,0,0,0,0,0,0],"sum_hessian":[2.064047E3,1.8305765E3,2.3347046E2,1.8165148E3,1.40618725E1,6.4795006E1,1.6867545E2,1.8139181E3,2.59662E0,4.604074E0,9.457799E0,3.119278E1,3.360223E1,1.7967883E3,1.712975E1,3.5170329E0,1.0870409E0,8.121332E0,1.3364666E0,2.4612114E1,6.5806646E0,3.2559677E1,1.0425508E0,1.7888394E3,7.9489613E0,1.5586039E1,1.5437102E0,2.2204475E0,1.2965853E0,2.3074335E1,1.5377797E0,4.823747E0,1.7569175E0,3.0304E1,2.2556782E0,1.7759054E3,1.2933952E1,1.0308331E0,6.9181285E0,3.1564798E0,1.2429559E1,1.6763445E1,6.3108907E0,1.9504824E0,2.8732648E0,2.9119684E1,1.1843157E0,1.1285837E0,1.1270945E0],"tree_param":{"num_deleted":"0","num_feature":"37","num_nodes":"49","size_leaf_vector":"0"}},{"base_weights":[-1.4721258E-1,-4.9040985E-1,1.9195713E0,-5.437898E-1,6.257213E-1,1.9381427E0,-4.0063187E-1,-5.588238E-1,-2.3447144E-1,-2.8138068E-1,1.7526404E0,1.2003963E0,1.973828E0,-5.600242E-1,-4.437802E-2,-4.2467743E-1,4.908619E-1,1.1289772E0,-4.4152588E-1,7.0531994E-1,1.9489032E0,-1.7772552E-1,1.853987E0,-5.6682545E-1,-5.017134E-1,-4.1005018E-1,5.137124E-1,-4.836996E-1,1.0025212E0,-3.3293447E-1,1.5549209E0,-3.0964565E-1,1.6456068E0,-5.318118E-1,4.3044797E-1,-2.3862208E-1,1.6432896E0,2.0035105E0,1.7980464E-1,1.8834987E-1,-4.4610918E-1,-5.675071E-1,-3.3533072E-1,1.7141914E0,-5.295065E-1,-5.2701074E-1,-6.536326E-2,-5.158648E-1,6.839652E-1,5.0855327E-1,1.8913774E0,-5.572093E-1,1.6484754E-1,8.7584245E-1,-3.343916E-1,1.8042652E-1,-4.1763487E-1,5.7619375E-1,-3.110093E-1],"categories":[],"categories_nodes":[],"categories_segments":[],"categories_sizes":[],"default_left":[1,1,1,1,1,1,0,1,1,1,1,1,0,1,1,1,1,1,1,1,1,1,0,1,1,0,0,1,0,1,1,0,0,1,1,1,0,0,0,1,0,0,0,0,0,0,0,0,0,0,0,0,0,0,0,0,0,0,0],"id":18,"left_children":[1,3,5,7,9,11,-1,13,15,17,19,21,-1,23,25,27,29,31,33,35,37,39,-1,41,43,-1,-1,45,-1,47,49,-1,-1,51,53,55,-1,-1,-1,57,-1,-1,-1,-1,-1,-1,-1,-1,-1,-1,-1,-1,-1,-1,-1,-1,-1,-1,-1],"loss_changes":[1.4705751E3,1.06250885E2,1.3498901E1,7.7607727E0,8.390941E1,5.3464355E0,0E0,9.740906E-1,1.129825E1,1.090442E1,6.13414E0,1.4808348E1,0E0,3.5562134E-1,1.2008039E0,5.8944902E0,1.5562714E1,4.2102284E0,3.5427685E0,6.8841076E0,2.557022E0,6.8173385E-1,0E0,3.656006E-2,1.182552E1,0E0,0E0,1.0951271E0,0E0,2.3056173E0,1.7369881E0,0E0,0E0,7.746601E-1,1.826548E0,4.150013E-1,0E0,0E0,0E0,8.137887E-1,0E0,0E0,0E0,0E0,0E0,0E0,0E0,0E0,0E0,0E0,0E0,0E0,0E0,0E0,0E0,0E0,0E0,0E0,0E0],"parents":[2147483647,0,0,1,1,2,2,3,3,4,4,5,5,7,7,8,8,9,9,10,10,11,11,13,13,14,14,15,15,16,16,17,17,18,18,19,19,20,20,21,21,23,23,24,24,27,27,29,29,30,30,33,33,34,34,35,35,39,39],"right_children":[2,4,6,8,10,12,-1,14,16,18,20,22,-1,24,26,28,30,32,34,36,38,40,-1,42,44,-1,-1,46,-1,48,50,-1,-1,52,54,56,-1,-1,-1,58,-1,-1,-1,-1,-1,-1,-1,-1,-1,-1,-1,-1,-1,-1,-1,-1,-1,-1,-1],"split_conditions":[1.7367996E0,7.335381E-2,3.8376145E0,1.1063721E-1,2.3190153E-1,1.9034919E-1,-4.0063187E-2,2.7083204E0,8.045479E-1,5.5379105E-1,5.8101576E-2,2.2686458E0,1.973828E-1,1.3158433E-1,5.533836E-1,2.1610464E-1,1.492914E-1,2.4702385E-1,1.6625307E0,1.624617E0,2.413602E0,7.5110674E-1,1.853987E-1,1.3805541E0,7.5938016E-1,-4.100502E-2,5.1371243E-2,3.785128E-1,1.00252114E-1,1.572213E0,1.492914E-1,-3.0964566E-2,1.6456068E-1,1.2095885E0,3.7688255E-1,1.0990751E0,1.6432896E-1,2.0035104E-1,1.7980464E-2,6.462676E-1,-4.4610918E-2,-5.675071E-2,-3.3533074E-2,1.7141914E-1,-5.295065E-2,-5.2701075E-2,-6.536326E-3,-5.158648E-2,6.839652E-2,5.0855327E-2,1.8913774E-1,-5.5720933E-2,1.6484754E-2,8.758425E-2,-3.343916E-2,1.8042652E-2,-4.176349E-2,5.7619374E-2,-3.1100929E-2],"split_indices":[9,31,14,5,9,31,0,28,19,31,28,9,0,28,3,35,36,13,28,31,28,14,0,18,28,0,0,8,0,14,22,0,0,4,30,31,0,0,0,19,0,0,0,0,0,0,0,0,0,0,0,0,0,0,0,0,0,0,0],"split_type":[0,0,0,0,0,0,0,0,0,0,0,0,0,0,0,0,0,0,0,0,0,0,0,0,0,0,0,0,0,0,0,0,0,0,0,0,0,0,0,0,0,0,0,0,0,0,0,0,0,0,0,0,0,0,0,0,0,0,0],"sum_hessian":[2.0709065E3,1.7766499E3,2.942567E2,1.6960477E3,8.060218E1,2.920835E2,2.1732242E0,1.6166652E3,7.938252E1,4.5072136E1,3.553004E1,1.5074612E1,2.7700888E2,1.6128134E3,3.8518472E0,6.321896E1,1.616356E1,3.9791417E0,4.1092995E1,6.3323517E0,2.919769E1,5.0836377E0,9.990973E0,1.4365376E3,1.7627574E2,2.487348E0,1.3644989E0,6.134318E1,1.875778E0,9.497606E0,6.665954E0,1.1572553E0,2.8218863E0,3.759087E1,3.502127E0,3.527743E0,2.8046083E0,2.8194887E1,1.0028028E0,2.2765837E0,2.807054E0,1.4308728E3,5.664743E0,1.431943E0,1.748438E2,5.535264E1,5.9905443E0,8.467155E0,1.0304506E0,2.2329764E0,4.4329777E0,3.646178E1,1.1290876E0,2.121542E0,1.3805851E0,1.0535665E0,2.474177E0,1.194764E0,1.0818197E0],"tree_param":{"num_deleted":"0","num_feature":"37","num_nodes":"59","size_leaf_vector":"0"}},{"base_weights":[-4.520882E-1,-5.431617E-1,1.303039E0,-5.544956E-1,1.5491376E0,2.5542152E-1,1.798711E0,-5.667691E-1,-7.8848E-2,-8.74924E-2,1.9963894E0,-9.9648245E-2,1.9513248E0,1.8776206E0,-3.952953E-1,-5.67827E-1,-9.588665E-2,-4.9289364E-1,6.869372E-1,2.0361201E-1,-3.1476343E-1,-4.278949E-1,1.5025121E0,1.9305489E0,-1.9586459E-2,-5.699392E-1,-4.7351646E-1,6.5866953E-1,-4.4135672E-1,-5.53E-1,6.1637955E-3,1.0016057E0,-4.6144822E-1,-5.419966E-1,-8.265262E-2,5.291383E-1,1.6932158E0,1.9623908E0,1.307236E-1,-5.1341087E-1,2.447556E-1,-4.0308383E-1,6.906976E-1,1.3132461E0,-1.7948478E-1,-4.804251E-1,9.184753E-1,1.9861603E0,5.0160635E-1],"categories":[],"categories_nodes":[],"categories_segments":[],"categories_sizes":[],"default_left":[1,1,1,1,1,1,1,1,1,1,0,1,0,1,0,1,1,1,1,0,0,1,1,1,0,0,1,0,0,0,1,1,0,0,1,0,0,1,0,0,0,0,0,0,0,0,0,0,0],"id":19,"left_children":[1,3,5,7,9,11,13,15,17,19,-1,21,-1,23,-1,25,27,29,31,-1,-1,33,35,37,-1,-1,39,-1,-1,-1,41,43,-1,-1,45,-1,-1,47,-1,-1,-1,-1,-1,-1,-1,-1,-1,-1,-1],"loss_changes":[3.172321E2,4.551715E1,5.041771E1,1.0894287E1,7.794565E0,1.9845316E1,1.2228149E1,8.554077E-1,1.56519985E1,2.7528644E-1,0E0,1.5334315E1,0E0,6.4859314E0,0E0,9.313965E-2,1.6715927E0,9.611902E-1,6.737873E0,0E0,0E0,8.9919806E-1,2.6953697E-2,3.3242798E0,0E0,0E0,1.4388332E0,0E0,0E0,0E0,1.5169849E0,5.3692656E0,0E0,0E0,3.2815921E0,0E0,0E0,1.1330261E0,0E0,0E0,0E0,0E0,0E0,0E0,0E0,0E0,0E0,0E0,0E0],"parents":[2147483647,0,0,1,1,2,2,3,3,4,4,5,5,6,6,7,7,8,8,9,9,11,11,13,13,15,15,16,16,17,17,18,18,21,21,22,22,23,23,26,26,30,30,31,31,34,34,37,37],"right_children":[2,4,6,8,10,12,14,16,18,20,-1,22,-1,24,-1,26,28,30,32,-1,-1,34,36,38,-1,-1,40,-1,-1,-1,42,44,-1,-1,46,-1,-1,48,-1,-1,-1,-1,-1,-1,-1,-1,-1,-1,-1],"split_conditions":[1.9843266E0,1.8804274E0,3.6646378E-1,4.4041824E-1,9.6275455E-1,2.7679405E0,1.0645368E0,1.9432333E0,3.8161862E-1,4.4193596E-1,1.9963895E-1,6.9425654E-1,1.9513248E-1,7.666235E-1,-3.952953E-2,1.585501E0,1.9503387E0,6.9615716E-1,5.9032494E-1,2.0361202E-2,-3.1476345E-2,2.3992672E0,2.8293443E-1,1.067689E0,-1.9586459E-3,-5.699392E-2,5.9764826E-1,6.5866955E-2,-4.413567E-2,-5.5299997E-2,5.5503786E-1,2.7488926E-1,-4.6144824E-2,-5.4199662E-2,8.3974755E-1,5.2913833E-2,1.6932158E-1,7.682401E-1,1.3072359E-2,-5.1341087E-2,2.447556E-2,-4.0308382E-2,6.9069766E-2,1.3132462E-1,-1.7948478E-2,-4.804251E-2,9.184753E-2,1.9861603E-1,5.0160635E-2],"split_indices":[28,36,36,5,28,28,22,28,36,6,0,33,0,1,0,28,28,4,31,0,0,28,0,31,0,0,33,0,0,0,0,1,0,0,13,0,0,3,0,0,0,0,0,0,0,0,0,0,0],"split_type":[0,0,0,0,0,0,0,0,0,0,0,0,0,0,0,0,0,0,0,0,0,0,0,0,0,0,0,0,0,0,0,0,0,0,0,0,0,0,0,0,0,0,0,0,0,0,0,0,0],"sum_hessian":[1.9791882E3,1.8822108E3,9.697732E1,1.872801E3,9.409899E0,3.163375E1,6.534357E1,1.8255044E3,4.7296623E1,2.1922324E0,7.2176666E0,2.6935526E1,4.6982255E0,6.321421E1,2.1293576E0,1.821207E3,4.2973094E0,3.0929811E1,1.6366814E1,1.0067799E0,1.1854526E0,2.2963705E1,3.9718208E0,6.148143E1,1.7327821E0,1.77638E3,4.4827E1,1.0648766E0,3.2324326E0,2.7508598E1,3.421214E0,1.2947021E1,3.4197927E0,1.683115E1,6.1325545E0,1.2690594E0,2.7027614E0,6.0323875E1,1.1575527E0,4.273843E1,2.0885704E0,2.398456E0,1.022758E0,1.0155512E1,2.7915082E0,4.761007E0,1.3715477E0,5.900412E1,1.3197544E0],"tree_param":{"num_deleted":"0","num_feature":"37","num_nodes":"49","size_leaf_vector":"0"}},{"base_weights":[8.701587E-1,-5.4203767E-1,1.8872105E0,-5.582572E-1,1.762221E0,1.9674977E0,9.791513E-1,-5.6729263E-1,9.617918E-1,1.9782498E0,1.8532978E-1,-5.345468E-2,1.8198618E0,-5.691412E-1,2.4588482E-1,1.5164784E0,-3.6758614E-1,-3.21426E-1,1.2084103E0,-4.095174E-1,1.899125E0,-5.709698E-1,-3.1063968E-1,-5.175804E-1,8.869942E-1,1.7867327E0,-4.17729E-1,1.9340341E0,8.096394E-2,7.025273E-1,-5.0880915E-1,-5.4032344E-1,7.839342E-2,1.353656E0,-3.7796474E-1,1.9715294E0,6.954606E-1],"categories":[],"categories_nodes":[],"categories_segments":[],"categories_sizes":[],"default_left":[1,1,1,1,1,0,1,1,1,0,0,1,1,1,0,0,0,1,1,0,1,0,1,1,1,0,0,1,0,0,0,0,0,0,0,0,0],"id":20,"left_children":[1,3,5,7,9,-1,11,13,15,-1,-1,17,19,21,-1,-1,-1,23,25,-1,27,-1,29,31,33,-1,-1,35,-1,-1,-1,-1,-1,-1,-1,-1,-1],"loss_changes":[3.710243E3,4.1422638E1,1.0754297E2,1.5312622E1,2.2916641E0,0E0,1.07714424E2,1.7475586E0,5.5159087E0,0E0,0E0,1.9528996E1,1.2857574E1,3.2717896E-1,0E0,0E0,0E0,1.1713526E1,1.0268444E1,0E0,4.0445557E0,0E0,2.3031287E0,6.045933E-1,4.6433287E0,0E0,0E0,1.6428986E0,0E0,0E0,0E0,0E0,0E0,0E0,0E0,0E0,0E0],"parents":[2147483647,0,0,1,1,2,2,3,3,4,4,6,6,7,7,8,8,11,11,12,12,13,13,17,17,18,18,20,20,22,22,23,23,24,24,27,27],"right_children":[2,4,6,8,10,-1,12,14,16,-1,-1,18,20,22,-1,-1,-1,24,26,-1,28,-1,30,32,34,-1,-1,36,-1,-1,-1,-1,-1,-1,-1,-1,-1],"split_conditions":[2.5637045E0,1.9632268E0,8.130537E-2,3.1223266E0,3.886616E-1,1.9674978E-1,3.570529E0,2.249579E0,3.471998E-1,1.9782498E-1,1.8532978E-2,3.6071315E0,9.202518E-1,2.2771082E0,2.4588482E-2,1.5164785E-1,-3.6758613E-2,2.1667695E0,2.8590932E-1,-4.095174E-2,1.5542974E0,-5.7096984E-2,2.3039162E0,1.5214732E0,3.0983973E-1,1.7867327E-1,-4.17729E-2,4.0042776E-1,8.096394E-3,7.025273E-2,-5.0880916E-2,-5.4032344E-2,7.839343E-3,1.353656E-1,-3.7796475E-2,1.9715294E-1,6.9546066E-2],"split_indices":[16,29,28,14,28,0,16,17,31,0,0,14,28,16,0,0,0,34,22,0,9,0,16,36,0,0,0,22,0,0,0,0,0,0,0,0,0],"split_type":[0,0,0,0,0,0,0,0,0,0,0,0,0,0,0,0,0,0,0,0,0,0,0,0,0,0,0,0,0,0,0,0,0,0,0,0,0],"sum_hessian":[2.5815247E3,1.0810009E3,1.5005238E3,1.0741973E3,6.803499E0,1.3775585E3,1.2296538E2,1.0684729E3,5.7243743E0,5.7598886E0,1.0436106E0,5.560488E1,6.73605E1,1.066349E3,2.1240113E0,3.9397573E0,1.7846172E0,4.647967E1,9.125208E0,2.169655E0,6.519084E1,1.0576583E3,8.690649E0,4.0480453E1,5.9992194E0,6.658436E0,2.4667726E0,6.3900215E1,1.2906289E0,1.0053884E0,7.685261E0,3.90824E1,1.3980517E0,4.3312426E0,1.6679771E0,6.1448223E1,2.4519923E0],"tree_param":{"num_deleted":"0","num_feature":"37","num_nodes":"37","size_leaf_vector":"0"}},{"base_weights":[2.0460981E-1,-4.8957986E-1,1.4674731E0,-5.489973E-1,1.3971292E0,7.4629015E-1,1.6071155E0,-5.571823E-1,8.846349E-1,1.4589816E0,-3.4548682E-1,-1.8475192E-2,1.2343218E0,1.6149327E0,-1.8210213E-1,-5.599907E-1,4.2517155E-1,1.1791257E0,-3.3878323E-1,1.5216769E0,1.8099175E-1,-4.0951127E-1,1.2500654E0,1.4131519E0,-1.3921276E-1,1.6172342E0,1.2399471E-1,-3.7929934E-1,1.5539707E-1,-5.627207E-1,-9.419546E-2,-4.0259513E-1,1.448177E0,1.6199201E0,-3.3688885E-1,1.0386121E0,1.6925446E0,-3.5591263E-1,6.5299857E-1,-5.0136995E-1,4.6718356E-1,1.4746407E0,-3.327799E-1,1.4611461E0,-3.6396772E-1,4.8635164E-1,-4.9581265E-1,1.4473337E0,1.6414859E0,-5.634379E-1,1.8929291E-1,-3.6409974E-1,5.973097E-1,1.1962316E0,-3.2412957E-2,-5.53436E-1,1.0985817E-1,-3.8766077E-1,1.3879337E0,4.692562E-2,1.6831144E0,1.5618778E0,4.0124348E-1,6.357517E-2,6.73281E-1,1.4701718E0,1.5213423E-2],"categories":[],"categories_nodes":[],"categories_segments":[],"categories_sizes":[],"default_left":[1,1,1,1,1,1,1,1,1,1,0,1,1,1,1,1,1,1,0,1,1,1,1,1,1,1,0,0,0,1,1,0,0,0,0,1,0,0,0,1,1,1,0,1,0,1,0,1,0,0,0,0,0,0,0,0,0,0,0,0,0,0,0,0,0,0,0],"id":21,"left_children":[1,3,5,7,9,11,13,15,17,19,-1,21,23,25,27,29,31,33,-1,35,37,39,41,43,45,47,-1,-1,-1,49,51,-1,-1,-1,-1,53,-1,-1,-1,55,57,59,-1,61,-1,63,-1,65,-1,-1,-1,-1,-1,-1,-1,-1,-1,-1,-1,-1,-1,-1,-1,-1,-1,-1,-1],"loss_changes":[1.9669254E3,1.6309454E2,7.894409E1,1.6974121E1,5.299591E0,4.8901634E1,9.607178E0,4.092621E0,3.4113774E0,3.1825867E0,0E0,2.6307203E1,1.9837204E1,2.074829E0,3.115217E-1,1.7191467E0,4.437104E0,5.197486E0,0E0,1.6266403E0,1.0315087E0,3.4959598E0,4.933956E0,6.573715E0,2.4990213E0,3.5144043E-1,0E0,0E0,0E0,8.5369873E-1,1.9572347E0,0E0,0E0,0E0,0E0,2.2844296E0,0E0,0E0,0E0,1.242856E0,3.968949E0,3.2339592E0,0E0,6.7588196E0,0E0,2.8751594E-1,0E0,2.958496E0,0E0,0E0,0E0,0E0,0E0,0E0,0E0,0E0,0E0,0E0,0E0,0E0,0E0,0E0,0E0,0E0,0E0,0E0,0E0],"parents":[2147483647,0,0,1,1,2,2,3,3,4,4,5,5,6,6,7,7,8,8,9,9,11,11,12,12,13,13,14,14,15,15,16,16,17,17,19,19,20,20,21,21,22,22,23,23,24,24,25,25,29,29,30,30,35,35,39,39,40,40,41,41,43,43,45,45,47,47],"right_children":[2,4,6,8,10,12,14,16,18,20,-1,22,24,26,28,30,32,34,-1,36,38,40,42,44,46,48,-1,-1,-1,50,52,-1,-1,-1,-1,54,-1,-1,-1,56,58,60,-1,62,-1,64,-1,66,-1,-1,-1,-1,-1,-1,-1,-1,-1,-1,-1,-1,-1,-1,-1,-1,-1,-1,-1],"split_conditions":[1.1677623E0,2.2333832E0,1.0030277E0,1.7669206E0,1.6678817E0,1.8662093E0,1.6738305E0,1.1272178E0,3.6646228E0,1.7621872E0,-3.454868E-2,1.4684107E0,1.4513919E0,1.7784383E0,6.8760407E-1,1.8747091E0,1.3454518E0,1.5228417E0,-3.3878323E-2,1.1869051E0,1.6254694E0,8.0934453E-1,2.1995363E0,7.0348513E-1,1.3195629E0,1.6245067E0,1.2399471E-2,-3.7929934E-2,1.5539708E-2,1.8858664E0,1.2105441E0,-4.0259514E-2,1.448177E-1,1.6199201E-1,-3.3688884E-2,1.3809454E0,1.6925447E-1,-3.5591263E-2,6.529986E-2,8.3200693E-1,1.1033157E0,1.3499141E0,-3.3277992E-2,2.634449E0,-3.639677E-2,2.764755E0,-4.9581267E-2,2.0823503E0,1.641486E-1,-5.634379E-2,1.8929292E-2,-3.6409974E-2,5.9730973E-2,1.1962316E-1,-3.2412957E-3,-5.5343598E-2,1.0985817E-2,-3.876608E-2,1.3879338E-1,4.692562E-3,1.6831145E-1,1.5618779E-1,4.012435E-2,6.357517E-3,6.73281E-2,1.4701718E-1,1.5213423E-3],"split_indices":[3,19,22,22,1,3,9,24,16,16,0,2,28,1,17,19,0,28,0,22,6,7,15,21,15,22,0,0,0,15,29,0,0,0,0,27,0,0,0,15,28,3,0,15,0,3,0,28,0,0,0,0,0,0,0,0,0,0,0,0,0,0,0,0,0,0,0],"split_type":[0,0,0,0,0,0,0,0,0,0,0,0,0,0,0,0,0,0,0,0,0,0,0,0,0,0,0,0,0,0,0,0,0,0,0,0,0,0,0,0,0,0,0,0,0,0,0,0,0,0,0,0,0,0,0,0,0,0,0,0,0,0,0,0,0,0,0],"sum_hessian":[2.2418215E3,1.4470162E3,7.9480524E2,1.4035245E3,4.349165E1,1.2996176E2,6.648435E2,1.3961648E3,7.3597875E0,4.2158054E1,1.3335962E0,5.100189E1,7.895987E1,6.620484E2,2.7951143E0,1.3926135E3,3.5512886E0,5.9610887E0,1.3986988E0,4.000483E1,2.1532254E0,3.950224E1,1.1499649E1,6.9838295E1,9.1215725E0,6.6094336E2,1.1050178E0,1.6860945E0,1.1090196E0,1.3842921E3,8.321433E0,2.2981749E0,1.2531137E0,4.565183E0,1.3959054E0,1.2302517E1,2.7702312E1,1.1224291E0,1.0307964E0,3.6143314E1,3.358925E0,1.0130664E1,1.3689849E0,6.817491E1,1.6633824E0,3.1797125E0,5.94186E0,9.01382E1,5.708052E2,1.3832238E3,1.0683068E0,6.325837E0,1.9955963E0,1.06223545E1,1.6801627E0,3.3393333E1,2.7499804E0,2.0420318E0,1.3168933E0,1.4468845E0,8.68378E0,6.182549E1,6.349423E0,1.3857278E0,1.7939849E0,8.869717E1,1.4410318E0],"tree_param":{"num_deleted":"0","num_feature":"37","num_nodes":"67","size_leaf_vector":"0"}},{"base_weights":[2.6964854E-2,-2.5052762E-1,1.1017345E0,3.378595E-2,-5.472975E-1,1.4495137E0,-3.1452912E-1,4.4832394E-1,-5.0320244E-1,-5.613021E-1,-1.21825255E-1,1.499461E0,-4.1549966E-1,3.770681E-1,-4.880215E-1,8.414856E-1,-5.548349E-1,-5.330962E-1,1.197444E0,-5.6252444E-1,1.5527192E-1,-2.4223416E-1,1.0410806E0,1.5680051E0,2.9888803E-1,-5.052974E-1,1.7115581E-1,9.951019E-1,-3.9273977E-1,-5.012362E-1,1.8285279E-1,1.1423659E0,-4.6476996E-1,-5.619852E-1,1.8180567E-1,-5.486073E-1,5.539307E-1,1.5264182E0,-3.060695E-1,-5.649808E-1,-3.08715E-1,-3.44271E-1,9.0566933E-1,1.601651E0,2.1733962E-1,5.567823E-1,-4.9072397E-1,1.2072015E0,-3.3415407E-1,-4.982485E-1,1.8370691E-1,-5.2780205E-1,-7.612917E-2,1.3270766E0,-4.8568135E-1,-4.9098736E-1,1.3404265E-1,-5.5127066E-1,1.7979915E-1,1.1210389E0,-3.8123703E-1,-5.007217E-1,5.718574E-1,-5.7363406E-2,-4.7571182E-1,1.6228461E0,-2.5478306E-1,-4.9132502E-1,1.0381166E0,7.498894E-1,-4.1212937E-1,1.4208086E0,2.7091837E-1,-5.5806017E-1,-9.406286E-2,4.5270082E-1,-4.1401318E-1],"categories":[],"categories_nodes":[],"categories_segments":[],"categories_sizes":[],"default_left":[1,1,1,1,1,1,1,1,1,1,1,1,1,1,1,1,1,1,1,1,0,1,0,1,1,0,0,1,1,1,0,1,1,0,0,1,1,0,0,0,1,1,0,1,1,1,0,1,0,0,0,1,1,0,0,0,0,0,0,0,0,0,0,0,0,0,0,0,0,0,0,0,0,0,0,0,0],"id":22,"left_children":[1,3,5,7,9,11,13,15,17,19,21,23,25,27,29,31,33,35,37,39,-1,41,-1,43,45,-1,-1,47,49,51,-1,53,55,-1,-1,57,59,-1,-1,-1,61,63,-1,65,67,69,-1,71,-1,-1,-1,73,75,-1,-1,-1,-1,-1,-1,-1,-1,-1,-1,-1,-1,-1,-1,-1,-1,-1,-1,-1,-1,-1,-1,-1,-1],"loss_changes":[6.3499414E2,1.428077E2,2.1565314E2,1.9282794E2,4.865753E0,3.331482E1,1.0617763E1,1.9325815E2,1.9825584E1,7.892456E-1,4.125961E0,2.767633E1,6.0995543E-1,8.9562E0,7.118244E-1,1.3871065E2,8.303032E-1,6.5691986E0,3.8442326E0,3.244934E-1,0E0,3.3431463E0,0E0,1.4344299E1,4.28636E0,0E0,0E0,3.2985935E0,6.227498E-1,7.375927E-1,0E0,8.666385E1,1.1103125E0,0E0,0E0,8.108444E-1,3.4637263E0,0E0,0E0,0E0,1.9560449E0,8.963542E-1,0E0,1.2819336E1,5.7536674E0,3.1762104E0,0E0,1.4295998E0,0E0,0E0,0E0,7.959919E-1,1.1200169E0,0E0,0E0,0E0,0E0,0E0,0E0,0E0,0E0,0E0,0E0,0E0,0E0,0E0,0E0,0E0,0E0,0E0,0E0,0E0,0E0,0E0,0E0,0E0,0E0],"parents":[2147483647,0,0,1,1,2,2,3,3,4,4,5,5,6,6,7,7,8,8,9,9,10,10,11,11,12,12,13,13,14,14,15,15,16,16,17,17,18,18,19,19,21,21,23,23,24,24,27,27,28,28,29,29,31,31,32,32,35,35,36,36,40,40,41,41,43,43,44,44,45,45,47,47,51,51,52,52],"right_children":[2,4,6,8,10,12,14,16,18,20,22,24,26,28,30,32,34,36,38,40,-1,42,-1,44,46,-1,-1,48,50,52,-1,54,56,-1,-1,58,60,-1,-1,-1,62,64,-1,66,68,70,-1,72,-1,-1,-1,74,76,-1,-1,-1,-1,-1,-1,-1,-1,-1,-1,-1,-1,-1,-1,-1,-1,-1,-1,-1,-1,-1,-1,-1,-1],"split_conditions":[1.0681669E0,1.9008636E0,1.1909516E0,1.318812E0,8.691882E-1,2.7751184E0,1.5791019E0,1.9504004E0,4.832884E-1,1.6796011E0,6.127814E-1,1.3060615E0,1.7471831E0,1.0464604E0,2.8078814E0,1.7517652E-1,1.2238016E0,1.476696E0,2.2956858E0,9.103957E-1,1.5527192E-2,6.0142654E-1,1.0410806E-1,1.2960126E0,3.364409E-1,-5.0529744E-2,1.7115582E-2,2.1004717E0,1.3209192E0,1.594875E0,1.828528E-2,2.309814E0,1.3351507E0,-5.619852E-2,1.8180568E-2,2.2484412E0,5.758499E-1,1.5264182E-1,-3.060695E-2,-5.649808E-2,7.246412E-1,1.0281979E0,9.056693E-2,1.4649771E0,1.4672439E0,2.2660413E0,-4.9072396E-2,1.1344995E0,-3.3415407E-2,-4.982485E-2,1.8370692E-2,1.1899927E0,1.3811445E0,1.3270766E-1,-4.8568137E-2,-4.9098738E-2,1.3404265E-2,-5.5127066E-2,1.7979916E-2,1.12103894E-1,-3.8123704E-2,-5.007217E-2,5.718574E-2,-5.736341E-3,-4.7571182E-2,1.6228461E-1,-2.5478307E-2,-4.9132504E-2,1.0381166E-1,7.498894E-2,-4.121294E-2,1.4208086E-1,2.7091837E-2,-5.580602E-2,-9.406286E-3,4.527008E-2,-4.140132E-2],"split_indices":[1,16,30,3,0,16,30,9,21,12,12,8,1,8,1,30,0,12,3,7,0,1,0,22,30,0,0,7,6,6,0,19,13,0,0,27,2,0,0,0,28,29,0,9,1,8,0,6,0,0,0,29,8,0,0,0,0,0,0,0,0,0,0,0,0,0,0,0,0,0,0,0,0,0,0,0,0],"split_type":[0,0,0,0,0,0,0,0,0,0,0,0,0,0,0,0,0,0,0,0,0,0,0,0,0,0,0,0,0,0,0,0,0,0,0,0,0,0,0,0,0,0,0,0,0,0,0,0,0,0,0,0,0,0,0,0,0,0,0,0,0,0,0,0,0,0,0,0,0,0,0,0,0,0,0,0,0],"sum_hessian":[2.1272092E3,1.6913024E3,4.3590686E2,8.642315E2,8.270709E2,3.4994943E2,8.595742E1,4.878172E2,3.7641428E2,8.004059E2,2.666504E1,3.410127E2,8.936743E0,1.7003304E1,6.895412E1,3.505784E2,1.3723882E2,3.7058667E2,5.8275895E0,7.9925757E2,1.1483145E0,2.488057E1,1.7844698E0,3.2230533E2,1.8707348E1,7.870681E0,1.0660622E0,9.269056E0,7.734247E0,6.787009E1,1.0840276E0,2.8504675E2,6.553163E1,1.3615431E2,1.0844996E0,3.6586142E2,4.7252655E0,4.7689023E0,1.0586872E0,7.9038214E2,8.875472E0,2.3492422E1,1.3881478E0,3.1429034E2,8.01498E0,1.4323901E1,4.3834467E0,8.072766E0,1.1962903E0,6.6523113E0,1.0819362E0,6.3650837E1,4.2192526E0,2.56168E2,2.8878763E1,6.295537E1,2.5762646E0,3.647708E2,1.0905961E0,2.8177545E0,1.907511E0,7.640785E0,1.234687E0,7.832389E0,1.5660032E1,3.1086697E2,3.4233835E0,4.5166574E0,3.4983234E0,1.2132005E1,2.1918962E0,6.151778E0,1.9209881E0,5.9232117E1,4.418717E0,1.5123804E0,2.7068725E0],"tree_param":{"num_deleted":"0","num_feature":"37","num_nodes":"77","size_leaf_vector":"0"}},{"base_weights":[-5.1127726E-1,-5.319161E-1,4.5824817E-1,-5.503744E-1,-2.4122842E-1,1.1933535E0,-4.8056972E-1,-5.509397E-1,1.7055117E-1,4.591968E-1,-5.1110154E-1,1.4819715E0,-4.3728566E-1,-5.334521E-1,1.7573358E-1,-5.525578E-1,-2.715364E-1,6.730059E-2,1.4662008E0,-5.347467E-1,3.6325672E-1,1.5549469E0,5.6784457E-1,-5.5890745E-1,-4.7796157E-1,-4.9810222E-1,1.5777574E-1,-1.928223E-1,1.0642745E0,2.9062882E-1,1.7389758E0,-5.468665E-1,4.475966E-3,8.610806E-1,1.699523E0,-5.0483876E-1,7.532805E-1,8.5240674E-1,-4.0159032E-1,1.8721709E-1,-5.2313715E-1,1.3592095E0,9.406852E-2,-5.5943805E-1,-1.7122023E-1,1.3989772E0,-3.6813852E-1],"categories":[],"categories_nodes":[],"categories_segments":[],"categories_sizes":[],"default_left":[1,1,1,1,1,1,1,1,0,1,1,1,0,0,0,1,1,1,1,1,0,1,0,0,1,0,1,1,1,0,0,1,0,1,0,0,0,0,0,0,0,0,0,0,0,0,0],"id":23,"left_children":[1,3,5,7,9,11,13,15,-1,17,19,21,-1,-1,-1,23,25,27,29,31,-1,33,-1,-1,35,-1,37,39,41,-1,-1,43,-1,45,-1,-1,-1,-1,-1,-1,-1,-1,-1,-1,-1,-1,-1],"loss_changes":[3.7738953E1,9.7144165E0,2.7899305E1,7.96875E-1,2.128421E1,1.1234428E1,7.219806E-1,6.293335E-1,0E0,1.2332184E1,1.8659477E0,4.0712357E-1,0E0,0E0,0E0,5.4418945E-1,1.2352884E0,6.357413E0,2.3088512E0,5.1960754E-1,0E0,2.7547836E-1,0E0,0E0,5.055134E0,0E0,2.2335563E0,2.565999E0,1.320682E0,0E0,0E0,2.6974487E-1,0E0,3.8315654E0,0E0,0E0,0E0,0E0,0E0,0E0,0E0,0E0,0E0,0E0,0E0,0E0,0E0],"parents":[2147483647,0,0,1,1,2,2,3,3,4,4,5,5,6,6,7,7,9,9,10,10,11,11,15,15,16,16,17,17,18,18,19,19,21,21,24,24,26,26,27,27,28,28,31,31,33,33],"right_children":[2,4,6,8,10,12,14,16,-1,18,20,22,-1,-1,-1,24,26,28,30,32,-1,34,-1,-1,36,-1,38,40,42,-1,-1,44,-1,46,-1,-1,-1,-1,-1,-1,-1,-1,-1,-1,-1,-1,-1],"split_conditions":[2.6560075E0,1.3308747E0,1.3066471E0,3.6176634E0,1.1060005E0,5.65481E-1,1.7847275E0,1.4841518E0,1.7055117E-2,1.3565547E0,1.719447E0,4.268192E0,-4.3728568E-2,-5.334521E-2,1.7573358E-2,1.4404719E0,7.421419E-1,2.797655E0,8.21515E-1,1.5019813E0,3.6325675E-2,2.8526344E0,5.678446E-2,-5.5890746E-2,1.114843E0,-4.9810223E-2,1.5795625E0,2.4640033E0,2.2053983E0,2.9062882E-2,1.7389758E-1,2.7835078E0,4.4759663E-4,2.5189505E0,1.699523E-1,-5.048388E-2,7.532805E-2,8.524068E-2,-4.015903E-2,1.8721709E-2,-5.2313715E-2,1.3592096E-1,9.406853E-3,-5.5943806E-2,-1.7122023E-2,1.3989772E-1,-3.681385E-2],"split_indices":[15,15,22,2,22,0,32,10,0,28,17,3,0,0,0,28,14,19,19,29,0,15,0,0,15,0,14,3,2,0,0,2,0,3,0,0,0,0,0,0,0,0,0,0,0,0,0],"split_type":[0,0,0,0,0,0,0,0,0,0,0,0,0,0,0,0,0,0,0,0,0,0,0,0,0,0,0,0,0,0,0,0,0,0,0,0,0,0,0,0,0,0,0,0,0,0,0],"sum_hessian":[1.8728362E3,1.834241E3,3.859516E1,1.7238832E3,1.1035778E2,2.149399E1,1.710117E1,1.7227682E3,1.1150284E0,3.0499153E1,7.985863E1,1.8339184E1,3.1548061E0,1.5999202E1,1.1019672E0,1.7118762E3,1.0891953E1,2.2722904E1,7.7762504E0,7.813407E1,1.7245559E0,1.6334196E1,2.0049887E0,1.5716094E3,1.4026685E2,7.0245657E0,3.8673873E0,1.866069E1,4.0622134E0,1.8535405E0,5.92271E0,7.640265E1,1.7314274E0,4.0160074E0,1.2318189E1,1.378477E2,2.419145E0,1.4914266E0,2.3759608E0,8.87867E0,9.78202E0,2.8077347E0,1.2544788E0,7.345509E1,2.9475524E0,2.6975002E0,1.3185072E0],"tree_param":{"num_deleted":"0","num_feature":"37","num_nodes":"47","size_leaf_vector":"0"}},{"base_weights":[-2.742567E-1,-5.31223E-1,1.4188143E0,-5.4561526E-1,1.420284E0,1.4945184E0,-3.5133663E-1,-5.54053E-1,1.9838272E-1,1.5404012E0,1.2523073E-1,1.5385317E0,-1.0894064E-1,-5.132068E-1,5.7120496E-1,-5.5576664E-1,6.5781254E-1,-2.949366E-1,9.3898976E-1,1.6466271E0,4.4887084E-1,1.1978071E0,1.6561391E0,-4.8089373E-1,1.0062898E0,-5.585769E-1,-1.7095625E-1,6.2118953E-1,-4.4069746E-1,1.2610307E0,-3.4132108E-1,2.7109382E-1,1.506571E0,1.6646092E0,3.9426386E-1,-5.636949E-1,-5.1492345E-1,3.823655E-1,-5.1068527E-1,-5.2185607E-1,1.0409511E-1,1.4826051E0,1.2289274E-1,6.2140614E-1,-1.12773485E-1,1.536264E0,1.4027064E-1],"categories":[],"categories_nodes":[],"categories_segments":[],"categories_sizes":[],"default_left":[1,1,1,1,1,1,1,1,1,1,0,1,1,0,0,1,0,1,1,0,0,1,1,0,0,1,1,0,1,1,0,1,1,0,0,0,0,0,0,0,0,0,0,0,0,0,0],"id":24,"left_children":[1,3,5,7,9,11,13,15,17,19,-1,21,23,-1,-1,25,-1,27,29,-1,-1,31,33,-1,-1,35,37,-1,39,41,-1,43,45,-1,-1,-1,-1,-1,-1,-1,-1,-1,-1,-1,-1,-1,-1],"loss_changes":[8.5840533E2,4.8867188E1,3.5373047E1,1.0785034E1,1.8002758E0,1.7780579E1,2.006713E0,3.857788E0,7.5129642E0,6.10178E-1,0E0,7.7524414E0,3.6370316E0,0E0,0E0,1.7211304E0,0E0,1.962746E0,3.793714E0,0E0,0E0,1.8464767E1,1.2463074E0,0E0,0E0,8.2214355E-2,2.7555392E0,0E0,5.6266093E-1,1.515173E0,0E0,2.4507318E0,1.7827606E0,0E0,0E0,0E0,0E0,0E0,0E0,0E0,0E0,0E0,0E0,0E0,0E0,0E0,0E0],"parents":[2147483647,0,0,1,1,2,2,3,3,4,4,5,5,6,6,7,7,8,8,9,9,11,11,12,12,15,15,17,17,18,18,21,21,22,22,25,25,26,26,28,28,29,29,31,31,32,32],"right_children":[2,4,6,8,10,12,14,16,18,20,-1,22,24,-1,-1,26,-1,28,30,-1,-1,32,34,-1,-1,36,38,-1,40,42,-1,44,46,-1,-1,-1,-1,-1,-1,-1,-1,-1,-1,-1,-1,-1,-1],"split_conditions":[1.1017561E0,1.7899914E0,2.1901243E0,1.3177106E0,1.3215495E0,2.7348018E0,6.294211E-1,7.8814375E-1,3.364409E-1,1.471111E0,1.2523073E-2,1.0212243E0,4.610063E-1,-5.132068E-2,5.71205E-2,9.0102947E-1,6.578126E-2,1.3493414E0,1.5808351E0,1.646627E-1,4.4887085E-2,1.5145581E0,1.4518034E0,-4.8089374E-2,1.0062899E-1,4.335444E-1,1.4191277E0,6.2118955E-2,1.2208772E0,1.7131484E0,-3.4132108E-2,1.3179095E0,1.7042725E0,1.6646092E-1,3.9426386E-2,-5.636949E-2,-5.1492345E-2,3.823655E-2,-5.1068526E-2,-5.2185606E-2,1.0409511E-2,1.4826052E-1,1.2289274E-2,6.2140614E-2,-1.1277349E-2,1.536264E-1,1.4027064E-2],"split_indices":[30,8,28,8,16,16,8,35,7,6,0,8,1,0,0,30,0,8,6,0,0,30,31,0,0,1,28,0,31,8,0,0,28,0,0,0,0,0,0,0,0,0,0,0,0,0,0],"split_type":[0,0,0,0,0,0,0,0,0,0,0,0,0,0,0,0,0,0,0,0,0,0,0,0,0,0,0,0,0,0,0,0,0,0,0,0,0,0,0,0,0,0,0,0,0,0,0],"sum_hessian":[1.970331E3,1.7112864E3,2.590447E2,1.6994733E3,1.1813096E1,2.4856982E2,1.0474882E1,1.6806678E3,1.8805414E1,1.0637052E1,1.1760451E0,2.4196854E2,6.6012797E0,9.288768E0,1.1861142E0,1.6788353E3,1.8325052E0,1.1648258E1,7.157156E0,9.230232E0,1.4068192E0,6.495887E1,1.7700967E2,5.3767977E0,1.224482E0,1.6662155E3,1.2619952E1,1.1511879E0,1.049707E1,5.730742E0,1.4264141E0,1.6703522E1,4.825535E1,1.7551242E2,1.497251E0,1.480703E3,1.8551239E2,4.753064E0,7.866888E0,9.1727E0,1.3243703E0,4.54354E0,1.1872017E0,8.409926E0,8.293594E0,4.7107204E1,1.1481438E0],"tree_param":{"num_deleted":"0","num_feature":"37","num_nodes":"47","size_leaf_vector":"0"}},{"base_weights":[-1.4691772E-1,-5.281093E-1,1.419204E0,-5.4180044E-1,1.5961988E0,-3.3875087E-1,1.6390247E0,-5.568569E-1,-3.252112E-1,-4.3752554E-1,6.853169E-1,1.6473895E0,-3.2870203E-1,-5.580822E-1,8.037839E-2,5.431859E-1,-4.0355936E-1,-5.272095E-1,2.5678334E-1,1.2285702E0,-2.7795758E-2,1.6517351E0,5.765659E-1,-5.5871797E-1,8.307449E-2,4.2957896E-1,-3.3458734E-1,-9.7589E-2,1.9973699E0,-4.391043E-1,5.443268E-1,-5.527395E-1,1.819571E-1,8.5330635E-1,-1.8061902E-1,1.655151E0,4.5403853E-1,-5.593313E-1,-2.7634007E-1,-4.6637616E-1,6.1390644E-1,-5.0559515E-1,-2.1456945E-1,-3.6877483E-1,1.4873899E0,-3.787322E-1,2.0141771E-1],"categories":[],"categories_nodes":[],"categories_segments":[],"categories_sizes":[],"default_left":[1,1,1,1,0,1,1,1,1,1,1,1,0,1,1,1,1,1,1,0,0,1,0,1,0,0,0,1,0,1,1,0,0,0,1,0,0,0,0,0,0,0,0,0,0,0,0],"id":25,"left_children":[1,3,5,7,-1,9,11,13,15,17,19,21,-1,23,25,27,29,31,33,-1,-1,35,-1,37,-1,-1,-1,39,-1,41,43,-1,-1,-1,45,-1,-1,-1,-1,-1,-1,-1,-1,-1,-1,-1,-1],"loss_changes":[1.2180675E3,4.858197E1,1.5490784E2,5.137329E0,0E0,4.8742614E0,6.3879395E0,1.2345581E0,7.5950117E0,2.7416449E0,1.7262671E0,6.9433594E-1,0E0,6.6622925E-1,6.941033E-1,8.951659E0,3.6086292E0,7.776089E-1,1.5788708E0,0E0,0E0,6.882324E-1,0E0,1.0858154E-1,0E0,0E0,0E0,2.2481062E0,0E0,1.3389225E0,4.045718E0,0E0,0E0,0E0,3.7719178E-1,0E0,0E0,0E0,0E0,0E0,0E0,0E0,0E0,0E0,0E0,0E0,0E0],"parents":[2147483647,0,0,1,1,2,2,3,3,5,5,6,6,7,7,8,8,9,9,10,10,11,11,13,13,14,14,15,15,16,16,17,17,18,18,21,21,23,23,27,27,29,29,30,30,34,34],"right_children":[2,4,6,8,-1,10,12,14,16,18,20,22,-1,24,26,28,30,32,34,-1,-1,36,-1,38,-1,-1,-1,40,-1,42,44,-1,-1,-1,46,-1,-1,-1,-1,-1,-1,-1,-1,-1,-1,-1,-1],"split_conditions":[5.8749493E-2,2.2702436E0,2.3094559E-1,1.492914E-1,1.5961988E-1,2.1493473E0,3.9392347E0,1.9531462E0,7.723447E-1,5.196931E-1,1.0638821E0,1.0788282E0,-3.2870203E-2,1.7223225E0,1.6014466E0,1.492914E-1,2.4856552E-1,3.8107005E-1,7.618356E-1,1.2285703E-1,-2.7795758E-3,1.724938E0,5.7656594E-2,2.7101822E0,8.307449E-3,4.29579E-2,-3.3458736E-2,2.2080733E-1,1.99737E-1,5.822909E-1,4.1383815E-1,-5.527395E-2,1.819571E-2,8.5330635E-2,1.6735818E0,1.6551511E-1,4.5403853E-2,-5.593313E-2,-2.7634008E-2,-4.6637617E-2,6.1390646E-2,-5.0559517E-2,-2.1456946E-2,-3.6877483E-2,1.48739E-1,-3.787322E-2,2.0141771E-2],"split_indices":[31,9,9,36,0,28,16,9,36,36,0,20,0,18,13,22,35,18,28,0,0,0,0,28,0,0,0,1,0,19,5,0,0,0,28,0,0,0,0,0,0,0,0,0,0,0,0],"split_type":[0,0,0,0,0,0,0,0,0,0,0,0,0,0,0,0,0,0,0,0,0,0,0,0,0,0,0,0,0,0,0,0,0,0,0,0,0,0,0,0,0,0,0,0,0,0,0],"sum_hessian":[2.0380846E3,1.6396572E3,3.9842725E2,1.6298976E3,9.75971E0,4.4223232E1,3.54204E2,1.5224894E3,1.0740823E2,4.085536E1,3.3678746E0,3.528668E2,1.3372406E0,1.5196912E3,2.7981212E0,8.397612E0,9.901062E1,3.6394894E1,4.4604635E0,1.5013273E0,1.8665473E0,3.5090027E2,1.966506E0,1.5183143E3,1.3769305E0,1.5003426E0,1.2977787E0,6.4766273E0,1.9209846E0,9.5949356E1,3.0612648E0,3.534312E1,1.0517732E0,1.4847426E0,2.9757206E0,3.4952148E2,1.3787935E0,1.514045E3,4.269242E0,4.4925375E0,1.9840897E0,7.306197E1,2.2887386E1,1.8647344E0,1.1965303E0,1.9652492E0,1.0104716E0],"tree_param":{"num_deleted":"0","num_feature":"37","num_nodes":"47","size_leaf_vector":"0"}},{"base_weights":[-4.435185E-1,-5.37489E-1,1.1886197E0,-5.595342E-1,1.725093E-1,2.3272923E-1,1.5673639E0,-5.617557E-1,1.5453266E-1,-4.8884335E-1,9.8598844E-1,-3.065927E-1,1.2250926E0,1.615507E0,-3.609713E-1,-5.6395686E-1,-4.2706642E-1,-4.1220385E-1,6.762257E-1,-5.5057245E-1,4.680949E-1,1.316293E0,-3.169102E-1,-4.39429E-1,9.4955426E-1,1.5141923E0,-3.577414E-1,1.6412297E0,9.724394E-2,2.500783E-1,-5.1291555E-1,7.849081E-1,2.0016974E-1,1.6119158E0,-4.2206824E-1,-4.617656E-1,1.7577404E-1,-4.8472655E-1,1.7764416E-1,1.6979499E0,1.1587624E-1,1.6668149E0,1.019912E-1,-3.899007E-1,1.0780023E0,-5.441549E-1,-2.5536337E-1,1.7270358E0,9.9464476E-2,-5.2925104E-1,-2.7628493E-1,1.8127357E0,5.5684084E-1,1.6802636E0,5.053414E-1],"categories":[],"categories_nodes":[],"categories_segments":[],"categories_sizes":[],"default_left":[1,1,1,1,1,1,1,1,1,1,1,1,1,1,0,0,1,0,1,0,0,1,1,1,0,1,0,1,0,1,1,0,0,1,0,0,0,1,0,1,0,1,0,0,0,0,0,0,0,0,0,0,0,0,0],"id":26,"left_children":[1,3,5,7,9,11,13,15,17,19,21,23,25,27,-1,-1,29,-1,31,-1,-1,33,35,37,-1,39,-1,41,-1,43,45,-1,-1,47,-1,-1,-1,49,-1,51,-1,53,-1,-1,-1,-1,-1,-1,-1,-1,-1,-1,-1,-1,-1],"loss_changes":[2.934322E2,2.83609E1,3.7374146E1,2.8654175E0,3.0149837E1,1.6836205E1,7.4980164E0,2.769165E-1,2.1168303E0,2.0939484E0,1.1201767E1,3.8756738E0,5.5887947E0,2.6855774E0,0E0,0E0,2.0002184E0,0E0,2.9961467E-2,0E0,0E0,1.105378E1,5.0039333E-1,6.291492E-1,0E0,2.2487278E0,0E0,2.6487885E0,0E0,2.6962667E0,9.36141E-2,0E0,0E0,2.868145E0,0E0,0E0,0E0,2.4237633E-2,0E0,8.2811356E-2,0E0,2.4963379E-1,0E0,0E0,0E0,0E0,0E0,0E0,0E0,0E0,0E0,0E0,0E0,0E0,0E0],"parents":[2147483647,0,0,1,1,2,2,3,3,4,4,5,5,6,6,7,7,8,8,9,9,10,10,11,11,12,12,13,13,16,16,18,18,21,21,22,22,23,23,25,25,27,27,29,29,30,30,33,33,37,37,39,39,41,41],"right_children":[2,4,6,8,10,12,14,16,18,20,22,24,26,28,-1,-1,30,-1,32,-1,-1,34,36,38,-1,40,-1,42,-1,44,46,-1,-1,48,-1,-1,-1,50,-1,52,-1,54,-1,-1,-1,-1,-1,-1,-1,-1,-1,-1,-1,-1,-1],"split_conditions":[1.975704E0,4.4041824E-1,3.988034E-1,1.7588363E0,9.8586124E-1,2.0595877E-1,1.0461819E0,3.8900858E-1,3.9496103E-1,6.5243435E-1,8.0240536E-1,2.8912876E0,1.5328526E-1,1.0609763E0,-3.609713E-2,-5.6395687E-2,7.612377E-1,-4.1220386E-2,1.7094581E0,-5.5057246E-2,4.680949E-2,9.975625E-1,1.3559122E0,2.4141532E-1,9.495543E-2,2.4437547E-1,-3.5774138E-2,7.5231636E-1,9.724394E-3,1.0211499E0,1.8362694E0,7.8490816E-2,2.0016974E-2,6.321051E-1,-4.2206824E-2,-4.617656E-2,1.7577404E-2,1.7006593E0,1.7764417E-2,1.3040729E0,1.1587624E-2,2.0669389E0,1.019912E-2,-3.8990073E-2,1.0780024E-1,-5.441549E-2,-2.5536338E-2,1.7270358E-1,9.946448E-3,-5.2925106E-2,-2.7628494E-2,1.8127356E-1,5.5684086E-2,1.6802637E-1,5.053414E-2],"split_indices":[28,5,36,36,28,30,19,33,0,33,19,28,1,9,0,0,33,0,0,0,0,9,17,33,0,3,0,1,0,0,0,0,0,1,0,0,0,14,0,30,0,0,0,0,0,0,0,0,0,0,0,0,0,0,0],"split_type":[0,0,0,0,0,0,0,0,0,0,0,0,0,0,0,0,0,0,0,0,0,0,0,0,0,0,0,0,0,0,0,0,0,0,0,0,0,0,0,0,0,0,0,0,0,0,0,0,0,0,0,0,0,0,0],"sum_hessian":[1.9080305E3,1.8047903E3,1.03240234E2,1.7506453E3,5.414504E1,2.9755787E1,7.348444E1,1.7454283E3,5.216844E0,3.0085123E1,2.4059916E1,1.9726196E1,1.0029591E1,7.185278E1,1.6316612E0,1.7142268E3,3.1201538E1,2.6010692E0,2.615775E0,2.8660946E1,1.4241774E0,1.9185755E1,4.8741603E0,1.8427666E1,1.2985301E0,8.517299E0,1.5122916E0,7.057607E1,1.2767092E0,3.2954338E0,2.7906105E1,1.6014054E0,1.0143696E0,1.645943E1,2.7263243E0,3.8151991E0,1.0589613E0,1.736726E1,